digraph Tree {
node [shape=box, style="filled, rounded", color="black", fontname="helvetica"] ;
edge [fontname="helvetica"] ;
0 [label="TRUCKS_AAD_avg <= -0.476752\nsquared_error = 0.112543\nsamples = 5170\nvalue = 0.269012", fillcolor="#fdf6f1"] ;
1 [label="rainfall <= -0.658709\nsquared_error = 0.142955\nsamples = 1712\nvalue = 0.32919", fillcolor="#fdf4ee"] ;
0 -> 1 [labeldistance=2.5, labelangle=45, headlabel="True"] ;
2 [label="Above_37_5_days <= -2.114883\nsquared_error = 0.209438\nsamples = 591\nvalue = 0.396357", fillcolor="#fcf2eb"] ;
1 -> 2 ;
3 [label="ALLVEHS_AA_avg <= -0.520994\nsquared_error = 0.629591\nsamples = 31\nvalue = 0.687604", fillcolor="#fae9dc"] ;
2 -> 3 ;
4 [label="rainfall <= -0.76455\nsquared_error = 0.212089\nsamples = 25\nvalue = 0.459324", fillcolor="#fcf0e7"] ;
3 -> 4 ;
5 [label="TRUCKS_AAD_avg <= -0.534118\nsquared_error = 0.050093\nsamples = 15\nvalue = 0.18913", fillcolor="#fef9f5"] ;
4 -> 5 ;
6 [label="TRUCKS_AAD_avg <= -0.618368\nsquared_error = 0.020601\nsamples = 12\nvalue = 0.148", fillcolor="#fefaf8"] ;
5 -> 6 ;
7 [label="TRUCKS_AAD_avg <= -0.676157\nsquared_error = 0.000904\nsamples = 5\nvalue = 0.116", fillcolor="#fefbf9"] ;
6 -> 7 ;
8 [label="squared_error = 0.0\nsamples = 1\nvalue = 0.135", fillcolor="#fefbf8"] ;
7 -> 8 ;
9 [label="TRUCKS_AAD_avg <= -0.650543\nsquared_error = 0.001017\nsamples = 4\nvalue = 0.11125", fillcolor="#fefcfa"] ;
7 -> 9 ;
10 [label="squared_error = 0.001056\nsamples = 2\nvalue = 0.1175", fillcolor="#fefbf9"] ;
9 -> 10 ;
11 [label="squared_error = 0.0009\nsamples = 2\nvalue = 0.105", fillcolor="#fefcfa"] ;
9 -> 11 ;
12 [label="TRUCKS_AAD_avg <= -0.569892\nsquared_error = 0.03825\nsamples = 7\nvalue = 0.18", fillcolor="#fef9f6"] ;
6 -> 12 ;
13 [label="squared_error = 0.0\nsamples = 1\nvalue = 0.285", fillcolor="#fdf6f1"] ;
12 -> 13 ;
14 [label="squared_error = 0.041139\nsamples = 6\nvalue = 0.168333", fillcolor="#fefaf7"] ;
12 -> 14 ;
15 [label="squared_error = 0.160239\nsamples = 3\nvalue = 0.463333", fillcolor="#fcf0e7"] ;
5 -> 15 ;
16 [label="TRUCKS_AAD_avg <= -0.567987\nsquared_error = 0.161252\nsamples = 10\nvalue = 0.903214", fillcolor="#f9e1d1"] ;
4 -> 16 ;
17 [label="squared_error = 0.031506\nsamples = 2\nvalue = 0.2325", fillcolor="#fdf8f3"] ;
16 -> 17 ;
18 [label="ALLVEHS_AA_avg <= -0.698558\nsquared_error = 0.095404\nsamples = 8\nvalue = 1.015", fillcolor="#f8decb"] ;
16 -> 18 ;
19 [label="squared_error = 0.094301\nsamples = 7\nvalue = 1.073", fillcolor="#f8dcc8"] ;
18 -> 19 ;
20 [label="squared_error = 0.0\nsamples = 1\nvalue = 0.725", fillcolor="#fae7da"] ;
18 -> 20 ;
21 [label="squared_error = 1.269034\nsamples = 6\nvalue = 1.455455", fillcolor="#f5cfb4"] ;
3 -> 21 ;
22 [label="rainfall <= -0.682204\nsquared_error = 0.180889\nsamples = 560\nvalue = 0.380044", fillcolor="#fcf3ec"] ;
2 -> 22 ;
23 [label="ALLVEHS_AA_avg <= -0.199605\nsquared_error = 0.173503\nsamples = 548\nvalue = 0.369831", fillcolor="#fdf3ec"] ;
22 -> 23 ;
24 [label="rainfall <= -1.091901\nsquared_error = 0.158722\nsamples = 536\nvalue = 0.35906", fillcolor="#fdf3ed"] ;
23 -> 24 ;
25 [label="rainfall <= -1.104326\nsquared_error = 0.223835\nsamples = 158\nvalue = 0.46907", fillcolor="#fcf0e7"] ;
24 -> 25 ;
26 [label="rainfall <= -1.14307\nsquared_error = 0.160311\nsamples = 151\nvalue = 0.435368", fillcolor="#fcf1e9"] ;
25 -> 26 ;
27 [label="ALLVEHS_AA_avg <= -0.547535\nsquared_error = 0.126857\nsamples = 101\nvalue = 0.356745", fillcolor="#fdf3ed"] ;
26 -> 27 ;
28 [label="ALLVEHS_AA_avg <= -0.667157\nsquared_error = 0.10426\nsamples = 81\nvalue = 0.320041", fillcolor="#fdf5ef"] ;
27 -> 28 ;
29 [label="squared_error = 0.137182\nsamples = 53\nvalue = 0.378247", fillcolor="#fcf3ec"] ;
28 -> 29 ;
30 [label="squared_error = 0.032209\nsamples = 28\nvalue = 0.220444", fillcolor="#fef8f4"] ;
28 -> 30 ;
31 [label="dayspassed <= -0.185298\nsquared_error = 0.195373\nsamples = 20\nvalue = 0.522593", fillcolor="#fbeee4"] ;
27 -> 31 ;
32 [label="squared_error = 0.069579\nsamples = 14\nvalue = 0.336316", fillcolor="#fdf4ee"] ;
31 -> 32 ;
33 [label="squared_error = 0.216\nsamples = 6\nvalue = 0.965", fillcolor="#f8dfcd"] ;
31 -> 33 ;
34 [label="TRUCKS_AAD_avg <= -0.617098\nsquared_error = 0.189456\nsamples = 50\nvalue = 0.578232", fillcolor="#fbece1"] ;
26 -> 34 ;
35 [label="Above_37_5_days <= -0.444573\nsquared_error = 0.066996\nsamples = 18\nvalue = 0.442069", fillcolor="#fcf1e8"] ;
34 -> 35 ;
36 [label="squared_error = 0.0225\nsamples = 2\nvalue = 0.63", fillcolor="#fbeadf"] ;
35 -> 36 ;
37 [label="squared_error = 0.067482\nsamples = 16\nvalue = 0.428148", fillcolor="#fcf1e9"] ;
35 -> 37 ;
38 [label="TRUCKS_AAD_avg <= -0.546819\nsquared_error = 0.240768\nsamples = 32\nvalue = 0.652736", fillcolor="#fbeadd"] ;
34 -> 38 ;
39 [label="squared_error = 0.317608\nsamples = 12\nvalue = 0.934762", fillcolor="#f9e0cf"] ;
38 -> 39 ;
40 [label="squared_error = 0.103889\nsamples = 20\nvalue = 0.467656", fillcolor="#fcf0e7"] ;
38 -> 40 ;
41 [label="TRUCKS_AAD_avg <= -0.595718\nsquared_error = 1.033083\nsamples = 7\nvalue = 1.176818", fillcolor="#f7d8c2"] ;
25 -> 41 ;
42 [label="squared_error = 0.0\nsamples = 1\nvalue = 2.975", fillcolor="#eb9d65"] ;
41 -> 42 ;
43 [label="ALLVEHS_AA_avg <= -0.782995\nsquared_error = 0.780711\nsamples = 6\nvalue = 0.997", fillcolor="#f8decc"] ;
41 -> 43 ;
44 [label="TRUCKS_AAD_avg <= -0.592542\nsquared_error = 0.769227\nsamples = 5\nvalue = 1.096111", fillcolor="#f8dbc7"] ;
43 -> 44 ;
45 [label="squared_error = -0.0\nsamples = 1\nvalue = 0.725", fillcolor="#fae7da"] ;
44 -> 45 ;
46 [label="squared_error = 1.050547\nsamples = 4\nvalue = 1.281667", fillcolor="#f6d5bd"] ;
44 -> 46 ;
47 [label="squared_error = -0.0\nsamples = 1\nvalue = 0.105", fillcolor="#fefcfa"] ;
43 -> 47 ;
48 [label="TRUCKS_AAD_avg <= -0.736275\nsquared_error = 0.124335\nsamples = 378\nvalue = 0.313079", fillcolor="#fdf5ef"] ;
24 -> 48 ;
49 [label="squared_error = 0.153726\nsamples = 5\nvalue = 0.7375", fillcolor="#fae7d9"] ;
48 -> 49 ;
50 [label="TRUCKS_AAD_avg <= -0.481621\nsquared_error = 0.120597\nsamples = 373\nvalue = 0.30562", fillcolor="#fdf5ef"] ;
48 -> 50 ;
51 [label="dayspassed <= -0.282691\nsquared_error = 0.1161\nsamples = 344\nvalue = 0.293854", fillcolor="#fdf5f0"] ;
50 -> 51 ;
52 [label="TRUCKS_AAD_avg <= -0.623871\nsquared_error = 0.042834\nsamples = 149\nvalue = 0.236918", fillcolor="#fdf7f3"] ;
51 -> 52 ;
53 [label="squared_error = 0.01603\nsamples = 28\nvalue = 0.146628", fillcolor="#fefaf8"] ;
52 -> 53 ;
54 [label="squared_error = 0.046655\nsamples = 121\nvalue = 0.25746", fillcolor="#fdf7f2"] ;
52 -> 54 ;
55 [label="ALLVEHS_AA_avg <= -0.472818\nsquared_error = 0.170224\nsamples = 195\nvalue = 0.339561", fillcolor="#fdf4ee"] ;
51 -> 55 ;
56 [label="squared_error = 0.203485\nsamples = 145\nvalue = 0.379659", fillcolor="#fcf3ec"] ;
55 -> 56 ;
57 [label="squared_error = 0.064133\nsamples = 50\nvalue = 0.23109", fillcolor="#fdf8f3"] ;
55 -> 57 ;
58 [label="dayspassed <= -0.975681\nsquared_error = 0.1516\nsamples = 29\nvalue = 0.433333", fillcolor="#fcf1e9"] ;
50 -> 58 ;
59 [label="squared_error = 0.095037\nsamples = 3\nvalue = 1.02", fillcolor="#f8deca"] ;
58 -> 59 ;
60 [label="Above_37_5_days <= 1.411328\nsquared_error = 0.122609\nsamples = 26\nvalue = 0.38", fillcolor="#fcf3ec"] ;
58 -> 60 ;
61 [label="squared_error = 0.10317\nsamples = 18\nvalue = 0.313281", fillcolor="#fdf5ef"] ;
60 -> 61 ;
62 [label="squared_error = 0.130919\nsamples = 8\nvalue = 0.557917", fillcolor="#fbede2"] ;
60 -> 62 ;
63 [label="TRUCKS_AAD_avg <= -0.483526\nsquared_error = 0.590551\nsamples = 12\nvalue = 0.835263", fillcolor="#f9e4d4"] ;
23 -> 63 ;
64 [label="ALLVEHS_AA_avg <= -0.117832\nsquared_error = 0.090547\nsamples = 7\nvalue = 0.531667", fillcolor="#fbeee4"] ;
63 -> 64 ;
65 [label="squared_error = 0.098745\nsamples = 6\nvalue = 0.53", fillcolor="#fbeee4"] ;
64 -> 65 ;
66 [label="squared_error = -0.0\nsamples = 1\nvalue = 0.55", fillcolor="#fbede3"] ;
64 -> 66 ;
67 [label="squared_error = 1.018824\nsamples = 5\nvalue = 1.355714", fillcolor="#f6d3b9"] ;
63 -> 67 ;
68 [label="ALLVEHS_AA_avg <= -0.782995\nsquared_error = 0.28599\nsamples = 12\nvalue = 0.884706", fillcolor="#f9e2d1"] ;
22 -> 68 ;
69 [label="TRUCKS_AAD_avg <= -0.592542\nsquared_error = 0.254486\nsamples = 7\nvalue = 1.21125", fillcolor="#f7d7c1"] ;
68 -> 69 ;
70 [label="TRUCKS_AAD_avg <= -0.654777\nsquared_error = 0.0289\nsamples = 2\nvalue = 0.76", fillcolor="#fae6d8"] ;
69 -> 70 ;
71 [label="squared_error = 0.0\nsamples = 1\nvalue = 0.59", fillcolor="#fbece1"] ;
70 -> 71 ;
72 [label="squared_error = 0.0\nsamples = 1\nvalue = 0.93", fillcolor="#f9e1cf"] ;
70 -> 72 ;
73 [label="TRUCKS_AAD_avg <= -0.58852\nsquared_error = 0.239181\nsamples = 5\nvalue = 1.361667", fillcolor="#f6d2b9"] ;
69 -> 73 ;
74 [label="squared_error = 0.307419\nsamples = 4\nvalue = 1.4925", fillcolor="#f5ceb2"] ;
73 -> 74 ;
75 [label="squared_error = -0.0\nsamples = 1\nvalue = 1.1", fillcolor="#f8dbc6"] ;
73 -> 75 ;
76 [label="squared_error = 0.134958\nsamples = 5\nvalue = 0.594444", fillcolor="#fbece0"] ;
68 -> 76 ;
77 [label="TRUCKS_AAD_avg <= -0.63255\nsquared_error = 0.105865\nsamples = 1121\nvalue = 0.295194", fillcolor="#fdf5f0"] ;
1 -> 77 ;
78 [label="ALLVEHS_AA_avg <= -0.792107\nsquared_error = 0.047136\nsamples = 270\nvalue = 0.228248", fillcolor="#fdf8f3"] ;
77 -> 78 ;
79 [label="ALLVEHS_AA_avg <= -0.82561\nsquared_error = 0.040656\nsamples = 124\nvalue = 0.184425", fillcolor="#fef9f6"] ;
78 -> 79 ;
80 [label="dayspassed <= -1.016886\nsquared_error = 0.048214\nsamples = 87\nvalue = 0.212585", fillcolor="#fef8f4"] ;
79 -> 80 ;
81 [label="rainfall <= -0.501811\nsquared_error = 0.116512\nsamples = 18\nvalue = 0.305", fillcolor="#fdf5ef"] ;
80 -> 81 ;
82 [label="ALLVEHS_AA_avg <= -0.928294\nsquared_error = 0.030017\nsamples = 13\nvalue = 0.247895", fillcolor="#fdf7f2"] ;
81 -> 82 ;
83 [label="TRUCKS_AAD_avg <= -0.692456\nsquared_error = 0.035081\nsamples = 5\nvalue = 0.203125", fillcolor="#fef8f5"] ;
82 -> 83 ;
84 [label="squared_error = 0.039541\nsamples = 4\nvalue = 0.211429", fillcolor="#fef8f4"] ;
83 -> 84 ;
85 [label="squared_error = -0.0\nsamples = 1\nvalue = 0.145", fillcolor="#fefaf8"] ;
83 -> 85 ;
86 [label="dayspassed <= -1.601245\nsquared_error = 0.023816\nsamples = 8\nvalue = 0.280455", fillcolor="#fdf6f1"] ;
82 -> 86 ;
87 [label="squared_error = 0.024714\nsamples = 5\nvalue = 0.295", fillcolor="#fdf5f0"] ;
86 -> 87 ;
88 [label="squared_error = 0.021225\nsamples = 3\nvalue = 0.255", fillcolor="#fdf7f2"] ;
86 -> 88 ;
89 [label="squared_error = 0.347387\nsamples = 5\nvalue = 0.485833", fillcolor="#fcefe6"] ;
81 -> 89 ;
90 [label="ALLVEHS_AA_avg <= -1.001516\nsquared_error = 0.029435\nsamples = 69\nvalue = 0.190581", fillcolor="#fef9f5"] ;
80 -> 90 ;
91 [label="rainfall <= 0.80748\nsquared_error = 0.032904\nsamples = 9\nvalue = 0.301937", fillcolor="#fdf5f0"] ;
90 -> 91 ;
92 [label="rainfall <= 0.172659\nsquared_error = 0.059445\nsamples = 3\nvalue = 0.15775", fillcolor="#fefaf7"] ;
91 -> 92 ;
93 [label="squared_error = 0.069689\nsamples = 2\nvalue = 0.206667", fillcolor="#fef8f5"] ;
92 -> 93 ;
94 [label="squared_error = -0.0\nsamples = 1\nvalue = 0.011", fillcolor="#ffffff"] ;
92 -> 94 ;
95 [label="rainfall <= 1.375656\nsquared_error = 0.014817\nsamples = 6\nvalue = 0.35", fillcolor="#fdf4ed"] ;
91 -> 95 ;
96 [label="squared_error = 0.027225\nsamples = 2\nvalue = 0.415", fillcolor="#fcf1ea"] ;
95 -> 96 ;
97 [label="squared_error = 0.011321\nsamples = 4\nvalue = 0.337", fillcolor="#fdf4ee"] ;
95 -> 97 ;
98 [label="ALLVEHS_AA_avg <= -0.846521\nsquared_error = 0.026181\nsamples = 60\nvalue = 0.170562", fillcolor="#fefaf6"] ;
90 -> 98 ;
99 [label="ALLVEHS_AA_avg <= -0.900421\nsquared_error = 0.012591\nsamples = 51\nvalue = 0.153851", fillcolor="#fefaf7"] ;
98 -> 99 ;
100 [label="rainfall <= 0.45765\nsquared_error = 0.016\nsamples = 19\nvalue = 0.211645", fillcolor="#fef8f4"] ;
99 -> 100 ;
101 [label="squared_error = 0.008447\nsamples = 11\nvalue = 0.160353", fillcolor="#fefaf7"] ;
100 -> 101 ;
102 [label="squared_error = 0.018096\nsamples = 8\nvalue = 0.273929", fillcolor="#fdf6f1"] ;
100 -> 102 ;
103 [label="ALLVEHS_AA_avg <= -0.895935\nsquared_error = 0.005989\nsamples = 32\nvalue = 0.112186", fillcolor="#fefbf9"] ;
99 -> 103 ;
104 [label="squared_error = 2.2e-05\nsamples = 2\nvalue = 0.023333", fillcolor="#fffefe"] ;
103 -> 104 ;
105 [label="squared_error = 0.0058\nsamples = 30\nvalue = 0.11885", fillcolor="#fefbf9"] ;
103 -> 105 ;
106 [label="Above_30_days <= 0.673549\nsquared_error = 0.085053\nsamples = 9\nvalue = 0.253", fillcolor="#fdf7f2"] ;
98 -> 106 ;
107 [label="Above_30_days <= -0.361451\nsquared_error = 0.020656\nsamples = 7\nvalue = 0.172692", fillcolor="#fef9f6"] ;
106 -> 107 ;
108 [label="squared_error = 0.0075\nsamples = 2\nvalue = 0.35", fillcolor="#fdf4ed"] ;
107 -> 108 ;
109 [label="squared_error = 0.006321\nsamples = 5\nvalue = 0.093889", fillcolor="#fefcfa"] ;
107 -> 109 ;
110 [label="squared_error = 0.189225\nsamples = 2\nvalue = 0.775", fillcolor="#fae6d7"] ;
106 -> 110 ;
111 [label="Above_30_days <= -0.509308\nsquared_error = 0.020048\nsamples = 37\nvalue = 0.126317", fillcolor="#fefbf9"] ;
79 -> 111 ;
112 [label="dayspassed <= 1.017133\nsquared_error = 0.003261\nsamples = 16\nvalue = 0.068036", fillcolor="#fffdfc"] ;
111 -> 112 ;
113 [label="Above_37_5_days <= -1.001343\nsquared_error = 0.000612\nsamples = 9\nvalue = 0.031667", fillcolor="#fffefe"] ;
112 -> 113 ;
114 [label="squared_error = 0.000602\nsamples = 7\nvalue = 0.039545", fillcolor="#fffefd"] ;
113 -> 114 ;
115 [label="squared_error = 0.0\nsamples = 2\nvalue = 0.01", fillcolor="#ffffff"] ;
113 -> 115 ;
116 [label="dayspassed <= 1.560287\nsquared_error = 0.003031\nsamples = 7\nvalue = 0.11", fillcolor="#fefcfa"] ;
112 -> 116 ;
117 [label="squared_error = 0.003784\nsamples = 6\nvalue = 0.116", fillcolor="#fefbf9"] ;
116 -> 117 ;
118 [label="squared_error = -0.0\nsamples = 1\nvalue = 0.09", fillcolor="#fefcfb"] ;
116 -> 118 ;
119 [label="rainfall <= -0.142945\nsquared_error = 0.028586\nsamples = 21\nvalue = 0.172943", fillcolor="#fef9f6"] ;
111 -> 119 ;
120 [label="dayspassed <= -0.844575\nsquared_error = 0.013556\nsamples = 13\nvalue = 0.13528", fillcolor="#fefbf8"] ;
119 -> 120 ;
121 [label="squared_error = 0.022715\nsamples = 6\nvalue = 0.182727", fillcolor="#fef9f6"] ;
120 -> 121 ;
122 [label="rainfall <= -0.637021\nsquared_error = 0.003201\nsamples = 7\nvalue = 0.098", fillcolor="#fefcfa"] ;
120 -> 122 ;
123 [label="squared_error = 0.000625\nsamples = 2\nvalue = 0.175", fillcolor="#fef9f6"] ;
122 -> 123 ;
124 [label="rainfall <= -0.538409\nsquared_error = 0.002477\nsamples = 5\nvalue = 0.085167", fillcolor="#fefcfb"] ;
122 -> 124 ;
125 [label="squared_error = 0.002575\nsamples = 3\nvalue = 0.103125", fillcolor="#fefcfa"] ;
124 -> 125 ;
126 [label="squared_error = 0.000347\nsamples = 2\nvalue = 0.04925", fillcolor="#fffefd"] ;
124 -> 126 ;
127 [label="dayspassed <= -0.177806\nsquared_error = 0.05375\nsamples = 8\nvalue = 0.2671", fillcolor="#fdf6f1"] ;
119 -> 127 ;
128 [label="squared_error = 0.0\nsamples = 1\nvalue = 0.86", fillcolor="#f9e3d3"] ;
127 -> 128 ;
129 [label="rainfall <= 0.389989\nsquared_error = 0.016324\nsamples = 7\nvalue = 0.201222", fillcolor="#fef9f5"] ;
127 -> 129 ;
130 [label="squared_error = 0.0\nsamples = 2\nvalue = 0.34", fillcolor="#fdf4ee"] ;
129 -> 130 ;
131 [label="Above_37_5_days <= 0.483377\nsquared_error = 0.010041\nsamples = 5\nvalue = 0.131833", fillcolor="#fefbf8"] ;
129 -> 131 ;
132 [label="squared_error = 0.0\nsamples = 1\nvalue = 0.07", fillcolor="#fffdfc"] ;
131 -> 132 ;
133 [label="squared_error = 0.011131\nsamples = 4\nvalue = 0.1442", fillcolor="#fefaf8"] ;
131 -> 133 ;
134 [label="Above_30_days <= -1.063772\nsquared_error = 0.049547\nsamples = 146\nvalue = 0.263053", fillcolor="#fdf6f2"] ;
78 -> 134 ;
135 [label="dayspassed <= 0.30916\nsquared_error = 0.041053\nsamples = 15\nvalue = 0.414643", fillcolor="#fcf2ea"] ;
134 -> 135 ;
136 [label="ALLVEHS_AA_avg <= -0.724912\nsquared_error = 0.017744\nsamples = 4\nvalue = 0.216", fillcolor="#fef8f4"] ;
135 -> 136 ;
137 [label="ALLVEHS_AA_avg <= -0.752972\nsquared_error = 0.000625\nsamples = 2\nvalue = 0.055", fillcolor="#fffdfc"] ;
136 -> 137 ;
138 [label="squared_error = 0.0\nsamples = 1\nvalue = 0.08", fillcolor="#fefdfb"] ;
137 -> 138 ;
139 [label="squared_error = -0.0\nsamples = 1\nvalue = 0.03", fillcolor="#fffefe"] ;
137 -> 139 ;
140 [label="squared_error = 0.000356\nsamples = 2\nvalue = 0.323333", fillcolor="#fdf5ef"] ;
136 -> 140 ;
141 [label="ALLVEHS_AA_avg <= -0.719772\nsquared_error = 0.035678\nsamples = 11\nvalue = 0.457826", fillcolor="#fcf0e8"] ;
135 -> 141 ;
142 [label="TRUCKS_AAD_avg <= -0.639536\nsquared_error = 0.04584\nsamples = 4\nvalue = 0.55", fillcolor="#fbede3"] ;
141 -> 142 ;
143 [label="squared_error = 0.034225\nsamples = 2\nvalue = 0.525", fillcolor="#fbeee4"] ;
142 -> 143 ;
144 [label="squared_error = 0.060919\nsamples = 2\nvalue = 0.5875", fillcolor="#fbece1"] ;
142 -> 144 ;
145 [label="rainfall <= -0.081948\nsquared_error = 0.016298\nsamples = 7\nvalue = 0.386923", fillcolor="#fcf2eb"] ;
141 -> 145 ;
146 [label="squared_error = 0.0\nsamples = 1\nvalue = 0.55", fillcolor="#fbede3"] ;
145 -> 146 ;
147 [label="ALLVEHS_AA_avg <= -0.622019\nsquared_error = 0.013547\nsamples = 6\nvalue = 0.357273", fillcolor="#fdf3ed"] ;
145 -> 147 ;
148 [label="squared_error = 0.015951\nsamples = 5\nvalue = 0.367778", fillcolor="#fdf3ec"] ;
147 -> 148 ;
149 [label="squared_error = -0.0\nsamples = 1\nvalue = 0.31", fillcolor="#fdf5ef"] ;
147 -> 149 ;
150 [label="Above_37_5_days <= -0.258983\nsquared_error = 0.04727\nsamples = 131\nvalue = 0.243312", fillcolor="#fdf7f3"] ;
134 -> 150 ;
151 [label="ALLVEHS_AA_avg <= -0.724912\nsquared_error = 0.014894\nsamples = 39\nvalue = 0.178814", fillcolor="#fef9f6"] ;
150 -> 151 ;
152 [label="ALLVEHS_AA_avg <= -0.762645\nsquared_error = 0.013595\nsamples = 22\nvalue = 0.149275", fillcolor="#fefaf8"] ;
151 -> 152 ;
153 [label="squared_error = 0.009159\nsamples = 5\nvalue = 0.220667", fillcolor="#fef8f4"] ;
152 -> 153 ;
154 [label="rainfall <= 0.071901\nsquared_error = 0.012974\nsamples = 17\nvalue = 0.128548", fillcolor="#fefbf9"] ;
152 -> 154 ;
155 [label="TRUCKS_AAD_avg <= -0.639536\nsquared_error = 0.019789\nsamples = 9\nvalue = 0.1616", fillcolor="#fefaf7"] ;
154 -> 155 ;
156 [label="squared_error = 0.054069\nsamples = 2\nvalue = 0.13725", fillcolor="#fefbf8"] ;
155 -> 156 ;
157 [label="squared_error = 0.007029\nsamples = 7\nvalue = 0.170455", fillcolor="#fefaf6"] ;
155 -> 157 ;
158 [label="ALLVEHS_AA_avg <= -0.73566\nsquared_error = 0.0046\nsamples = 8\nvalue = 0.097563", fillcolor="#fefcfa"] ;
154 -> 158 ;
159 [label="squared_error = 0.002736\nsamples = 5\nvalue = 0.065667", fillcolor="#fffdfc"] ;
158 -> 159 ;
160 [label="squared_error = 0.004008\nsamples = 3\nvalue = 0.138571", fillcolor="#fefbf8"] ;
158 -> 160 ;
161 [label="ALLVEHS_AA_avg <= -0.623479\nsquared_error = 0.013911\nsamples = 17\nvalue = 0.2182", fillcolor="#fef8f4"] ;
151 -> 161 ;
162 [label="rainfall <= 0.071901\nsquared_error = 0.012215\nsamples = 13\nvalue = 0.24813", fillcolor="#fdf7f2"] ;
161 -> 162 ;
163 [label="TRUCKS_AAD_avg <= -0.636149\nsquared_error = 0.00568\nsamples = 9\nvalue = 0.223313", fillcolor="#fef8f4"] ;
162 -> 163 ;
164 [label="squared_error = 0.007452\nsamples = 6\nvalue = 0.2438", fillcolor="#fdf7f3"] ;
163 -> 164 ;
165 [label="squared_error = 0.000862\nsamples = 3\nvalue = 0.189167", fillcolor="#fef9f5"] ;
163 -> 165 ;
166 [label="ALLVEHS_AA_avg <= -0.682741\nsquared_error = 0.022528\nsamples = 4\nvalue = 0.304857", fillcolor="#fdf5ef"] ;
162 -> 166 ;
167 [label="squared_error = 0.000968\nsamples = 2\nvalue = 0.235", fillcolor="#fdf7f3"] ;
166 -> 167 ;
168 [label="squared_error = 0.032292\nsamples = 2\nvalue = 0.35725", fillcolor="#fdf3ed"] ;
166 -> 168 ;
169 [label="rainfall <= -0.316108\nsquared_error = 0.006869\nsamples = 4\nvalue = 0.119857", fillcolor="#fefbf9"] ;
161 -> 169 ;
170 [label="squared_error = 0.0\nsamples = 1\nvalue = 0.238", fillcolor="#fdf7f3"] ;
169 -> 170 ;
171 [label="TRUCKS_AAD_avg <= -0.658376\nsquared_error = 0.0018\nsamples = 3\nvalue = 0.0726", fillcolor="#fffdfc"] ;
169 -> 171 ;
172 [label="squared_error = 0.0\nsamples = 1\nvalue = 0.044", fillcolor="#fffefd"] ;
171 -> 172 ;
173 [label="squared_error = 0.002091\nsamples = 2\nvalue = 0.091667", fillcolor="#fefcfb"] ;
171 -> 173 ;
174 [label="dayspassed <= -0.159077\nsquared_error = 0.059922\nsamples = 92\nvalue = 0.274448", fillcolor="#fdf6f1"] ;
150 -> 174 ;
175 [label="TRUCKS_AAD_avg <= -0.640594\nsquared_error = 0.174904\nsamples = 15\nvalue = 0.465294", fillcolor="#fcf0e7"] ;
174 -> 175 ;
176 [label="Above_30_days <= 0.266942\nsquared_error = 0.213044\nsamples = 10\nvalue = 0.534583", fillcolor="#fbeee4"] ;
175 -> 176 ;
177 [label="squared_error = 0.302514\nsamples = 4\nvalue = 0.584", fillcolor="#fbece1"] ;
176 -> 177 ;
178 [label="squared_error = 0.146146\nsamples = 6\nvalue = 0.499286", fillcolor="#fcefe5"] ;
176 -> 178 ;
179 [label="squared_error = 0.044194\nsamples = 5\nvalue = 0.299", fillcolor="#fdf5f0"] ;
175 -> 179 ;
180 [label="ALLVEHS_AA_avg <= -0.490925\nsquared_error = 0.039172\nsamples = 77\nvalue = 0.249102", fillcolor="#fdf7f2"] ;
174 -> 180 ;
181 [label="rainfall <= 0.608675\nsquared_error = 0.034077\nsamples = 73\nvalue = 0.238333", fillcolor="#fdf7f3"] ;
180 -> 181 ;
182 [label="Above_30_days <= 0.082121\nsquared_error = 0.018499\nsamples = 39\nvalue = 0.19097", fillcolor="#fef9f5"] ;
181 -> 182 ;
183 [label="squared_error = 0.017521\nsamples = 7\nvalue = 0.13", fillcolor="#fefbf9"] ;
182 -> 183 ;
184 [label="squared_error = 0.017516\nsamples = 32\nvalue = 0.207075", fillcolor="#fef8f5"] ;
182 -> 184 ;
185 [label="ALLVEHS_AA_avg <= -0.664844\nsquared_error = 0.04682\nsamples = 34\nvalue = 0.295", fillcolor="#fdf5f0"] ;
181 -> 185 ;
186 [label="squared_error = 0.048284\nsamples = 28\nvalue = 0.326", fillcolor="#fdf4ee"] ;
185 -> 186 ;
187 [label="squared_error = 0.020815\nsamples = 6\nvalue = 0.168182", fillcolor="#fefaf7"] ;
185 -> 187 ;
188 [label="squared_error = 0.091484\nsamples = 4\nvalue = 0.514", fillcolor="#fceee5"] ;
180 -> 188 ;
189 [label="dayspassed <= 1.586509\nsquared_error = 0.122893\nsamples = 851\nvalue = 0.316783", fillcolor="#fdf5ef"] ;
77 -> 189 ;
190 [label="rainfall <= -0.315657\nsquared_error = 0.106314\nsamples = 675\nvalue = 0.295412", fillcolor="#fdf5f0"] ;
189 -> 190 ;
191 [label="TRUCKS_AAD_avg <= -0.526921\nsquared_error = 0.163207\nsamples = 239\nvalue = 0.364473", fillcolor="#fdf3ec"] ;
190 -> 191 ;
192 [label="ALLVEHS_AA_avg <= -0.617369\nsquared_error = 0.128225\nsamples = 195\nvalue = 0.329136", fillcolor="#fdf4ee"] ;
191 -> 192 ;
193 [label="TRUCKS_AAD_avg <= -0.62366\nsquared_error = 0.146113\nsamples = 158\nvalue = 0.364959", fillcolor="#fdf3ec"] ;
192 -> 193 ;
194 [label="Above_30_days <= -0.398415\nsquared_error = 0.32585\nsamples = 12\nvalue = 0.681667", fillcolor="#fae9dc"] ;
193 -> 194 ;
195 [label="squared_error = 0.333506\nsamples = 2\nvalue = 1.1425", fillcolor="#f7dac4"] ;
194 -> 195 ;
196 [label="Above_30_days <= 0.229978\nsquared_error = 0.295029\nsamples = 10\nvalue = 0.624063", fillcolor="#fbebdf"] ;
194 -> 196 ;
197 [label="squared_error = 0.1176\nsamples = 2\nvalue = 0.48", fillcolor="#fcefe6"] ;
196 -> 197 ;
198 [label="squared_error = 0.361957\nsamples = 8\nvalue = 0.689545", fillcolor="#fae8dc"] ;
196 -> 198 ;
199 [label="ALLVEHS_AA_avg <= -0.652672\nsquared_error = 0.123067\nsamples = 146\nvalue = 0.339622", fillcolor="#fdf4ee"] ;
193 -> 199 ;
200 [label="rainfall <= -0.483511\nsquared_error = 0.055937\nsamples = 113\nvalue = 0.303771", fillcolor="#fdf5f0"] ;
199 -> 200 ;
201 [label="squared_error = 0.041331\nsamples = 56\nvalue = 0.228155", fillcolor="#fdf8f3"] ;
200 -> 201 ;
202 [label="squared_error = 0.059268\nsamples = 57\nvalue = 0.373571", fillcolor="#fcf3ec"] ;
200 -> 202 ;
203 [label="ALLVEHS_AA_avg <= -0.640499\nsquared_error = 0.337781\nsamples = 33\nvalue = 0.4651", fillcolor="#fcf0e7"] ;
199 -> 203 ;
204 [label="squared_error = 0.486784\nsamples = 3\nvalue = 1.164", fillcolor="#f7d9c3"] ;
203 -> 204 ;
205 [label="squared_error = 0.260922\nsamples = 30\nvalue = 0.387444", fillcolor="#fcf2eb"] ;
203 -> 205 ;
206 [label="rainfall <= -0.500455\nsquared_error = 0.025381\nsamples = 37\nvalue = 0.179052", fillcolor="#fef9f6"] ;
192 -> 206 ;
207 [label="TRUCKS_AAD_avg <= -0.579206\nsquared_error = 0.028444\nsamples = 29\nvalue = 0.201489", fillcolor="#fef9f5"] ;
206 -> 207 ;
208 [label="ALLVEHS_AA_avg <= -0.533306\nsquared_error = 0.024571\nsamples = 19\nvalue = 0.162333", fillcolor="#fefaf7"] ;
207 -> 208 ;
209 [label="squared_error = 0.024005\nsamples = 9\nvalue = 0.186563", fillcolor="#fef9f6"] ;
208 -> 209 ;
210 [label="squared_error = 0.02378\nsamples = 10\nvalue = 0.134643", fillcolor="#fefbf8"] ;
208 -> 210 ;
211 [label="dayspassed <= -0.159077\nsquared_error = 0.027797\nsamples = 10\nvalue = 0.270588", fillcolor="#fdf6f1"] ;
207 -> 211 ;
212 [label="squared_error = 0.015338\nsamples = 6\nvalue = 0.325455", fillcolor="#fdf4ee"] ;
211 -> 212 ;
213 [label="squared_error = 0.035\nsamples = 4\nvalue = 0.17", fillcolor="#fefaf6"] ;
211 -> 213 ;
214 [label="TRUCKS_AAD_avg <= -0.563542\nsquared_error = 0.000951\nsamples = 8\nvalue = 0.083182", fillcolor="#fefcfb"] ;
206 -> 214 ;
215 [label="Above_30_days <= 0.636585\nsquared_error = 5.7e-05\nsamples = 4\nvalue = 0.07", fillcolor="#fffdfc"] ;
214 -> 215 ;
216 [label="squared_error = 0.0\nsamples = 2\nvalue = 0.08", fillcolor="#fefdfb"] ;
215 -> 216 ;
217 [label="squared_error = 2.4e-05\nsamples = 2\nvalue = 0.066", fillcolor="#fffdfc"] ;
215 -> 217 ;
218 [label="squared_error = 0.00168\nsamples = 4\nvalue = 0.10625", fillcolor="#fefcfa"] ;
214 -> 218 ;
219 [label="Above_30_days <= 0.229978\nsquared_error = 0.286603\nsamples = 44\nvalue = 0.518623", fillcolor="#fceee4"] ;
191 -> 219 ;
220 [label="TRUCKS_AAD_avg <= -0.49284\nsquared_error = 0.07136\nsamples = 29\nvalue = 0.321444", fillcolor="#fdf5ef"] ;
219 -> 220 ;
221 [label="ALLVEHS_AA_avg <= -0.651644\nsquared_error = 0.10521\nsamples = 15\nvalue = 0.405", fillcolor="#fcf2ea"] ;
220 -> 221 ;
222 [label="rainfall <= -0.397438\nsquared_error = 0.033521\nsamples = 9\nvalue = 0.330385", fillcolor="#fdf4ee"] ;
221 -> 222 ;
223 [label="squared_error = 0.035867\nsamples = 8\nvalue = 0.33625", fillcolor="#fdf4ee"] ;
222 -> 223 ;
224 [label="squared_error = 0.0\nsamples = 1\nvalue = 0.26", fillcolor="#fdf7f2"] ;
222 -> 224 ;
225 [label="rainfall <= -0.456515\nsquared_error = 0.197955\nsamples = 6\nvalue = 0.52625", fillcolor="#fbeee4"] ;
221 -> 225 ;
226 [label="squared_error = 0.213774\nsamples = 5\nvalue = 0.565714", fillcolor="#fbede2"] ;
225 -> 226 ;
227 [label="squared_error = 0.0\nsamples = 1\nvalue = 0.25", fillcolor="#fdf7f2"] ;
225 -> 227 ;
228 [label="TRUCKS_AAD_avg <= -0.481621\nsquared_error = 0.030287\nsamples = 14\nvalue = 0.248333", fillcolor="#fdf7f2"] ;
220 -> 228 ;
229 [label="dayspassed <= -0.837083\nsquared_error = 0.020462\nsamples = 10\nvalue = 0.184667", fillcolor="#fef9f6"] ;
228 -> 229 ;
230 [label="squared_error = 0.017879\nsamples = 9\nvalue = 0.212308", fillcolor="#fef8f4"] ;
229 -> 230 ;
231 [label="squared_error = -0.0\nsamples = 1\nvalue = 0.005", fillcolor="#ffffff"] ;
229 -> 231 ;
232 [label="squared_error = 0.028647\nsamples = 4\nvalue = 0.354444", fillcolor="#fdf3ed"] ;
228 -> 232 ;
233 [label="TRUCKS_AAD_avg <= -0.482256\nsquared_error = 0.480599\nsamples = 15\nvalue = 0.888333", fillcolor="#f9e2d1"] ;
219 -> 233 ;
234 [label="TRUCKS_AAD_avg <= -0.518454\nsquared_error = 0.47258\nsamples = 14\nvalue = 0.923043", fillcolor="#f9e1cf"] ;
233 -> 234 ;
235 [label="squared_error = 0.497189\nsamples = 4\nvalue = 1.163333", fillcolor="#f7d9c3"] ;
234 -> 235 ;
236 [label="ALLVEHS_AA_avg <= -0.632322\nsquared_error = 0.436323\nsamples = 10\nvalue = 0.838235", fillcolor="#f9e4d4"] ;
234 -> 236 ;
237 [label="squared_error = 0.008425\nsamples = 3\nvalue = 0.175", fillcolor="#fef9f6"] ;
236 -> 237 ;
238 [label="squared_error = 0.390991\nsamples = 7\nvalue = 1.042308", fillcolor="#f8ddc9"] ;
236 -> 238 ;
239 [label="squared_error = 0.0\nsamples = 1\nvalue = 0.09", fillcolor="#fefcfb"] ;
233 -> 239 ;
240 [label="ALLVEHS_AA_avg <= -0.746851\nsquared_error = 0.07172\nsamples = 436\nvalue = 0.258217", fillcolor="#fdf7f2"] ;
190 -> 240 ;
241 [label="Above_30_days <= -0.435379\nsquared_error = 0.107209\nsamples = 94\nvalue = 0.365014", fillcolor="#fdf3ec"] ;
240 -> 241 ;
242 [label="rainfall <= 1.108738\nsquared_error = 0.149036\nsamples = 42\nvalue = 0.507879", fillcolor="#fceee5"] ;
241 -> 242 ;
243 [label="ALLVEHS_AA_avg <= -0.816335\nsquared_error = 0.133139\nsamples = 40\nvalue = 0.484127", fillcolor="#fcefe6"] ;
242 -> 243 ;
244 [label="TRUCKS_AAD_avg <= -0.608207\nsquared_error = 0.042004\nsamples = 11\nvalue = 0.304063", fillcolor="#fdf5f0"] ;
243 -> 244 ;
245 [label="squared_error = 0.023267\nsamples = 3\nvalue = 0.48", fillcolor="#fcefe6"] ;
244 -> 245 ;
246 [label="squared_error = 0.02353\nsamples = 8\nvalue = 0.1985", fillcolor="#fef9f5"] ;
244 -> 246 ;
247 [label="TRUCKS_AAD_avg <= -0.569046\nsquared_error = 0.149369\nsamples = 29\nvalue = 0.545426", fillcolor="#fbede3"] ;
243 -> 247 ;
248 [label="squared_error = 0.156411\nsamples = 26\nvalue = 0.522024", fillcolor="#fbeee4"] ;
247 -> 248 ;
249 [label="squared_error = 0.046976\nsamples = 3\nvalue = 0.742", fillcolor="#fae7d9"] ;
247 -> 249 ;
250 [label="squared_error = 0.222222\nsamples = 2\nvalue = 1.006667", fillcolor="#f8decb"] ;
242 -> 250 ;
251 [label="TRUCKS_AAD_avg <= -0.575396\nsquared_error = 0.042946\nsamples = 52\nvalue = 0.248605", fillcolor="#fdf7f2"] ;
241 -> 251 ;
252 [label="rainfall <= -0.145769\nsquared_error = 0.03394\nsamples = 42\nvalue = 0.211985", fillcolor="#fef8f4"] ;
251 -> 252 ;
253 [label="ALLVEHS_AA_avg <= -0.819395\nsquared_error = 0.00342\nsamples = 4\nvalue = 0.057273", fillcolor="#fffdfc"] ;
252 -> 253 ;
254 [label="squared_error = 0.003367\nsamples = 3\nvalue = 0.084286", fillcolor="#fefcfb"] ;
253 -> 254 ;
255 [label="squared_error = 0.0\nsamples = 1\nvalue = 0.01", fillcolor="#ffffff"] ;
253 -> 255 ;
256 [label="rainfall <= -0.093469\nsquared_error = 0.034309\nsamples = 38\nvalue = 0.242375", fillcolor="#fdf7f3"] ;
252 -> 256 ;
257 [label="squared_error = 0.164356\nsamples = 2\nvalue = 0.476667", fillcolor="#fcefe7"] ;
256 -> 257 ;
258 [label="squared_error = 0.023665\nsamples = 36\nvalue = 0.229113", fillcolor="#fdf8f3"] ;
256 -> 258 ;
259 [label="rainfall <= 0.851759\nsquared_error = 0.048917\nsamples = 10\nvalue = 0.423857", fillcolor="#fcf1e9"] ;
251 -> 259 ;
260 [label="rainfall <= 0.073143\nsquared_error = 0.040834\nsamples = 9\nvalue = 0.394769", fillcolor="#fcf2eb"] ;
259 -> 260 ;
261 [label="squared_error = 0.025247\nsamples = 7\nvalue = 0.4745", fillcolor="#fcf0e7"] ;
260 -> 261 ;
262 [label="squared_error = 0.000968\nsamples = 2\nvalue = 0.129", fillcolor="#fefbf9"] ;
260 -> 262 ;
263 [label="squared_error = 0.0\nsamples = 1\nvalue = 0.802", fillcolor="#fae5d6"] ;
259 -> 263 ;
264 [label="rainfall <= 0.230154\nsquared_error = 0.058109\nsamples = 342\nvalue = 0.229144", fillcolor="#fdf8f3"] ;
240 -> 264 ;
265 [label="ALLVEHS_AA_avg <= -0.202666\nsquared_error = 0.035032\nsamples = 120\nvalue = 0.190686", fillcolor="#fef9f5"] ;
264 -> 265 ;
266 [label="ALLVEHS_AA_avg <= -0.667157\nsquared_error = 0.033224\nsamples = 119\nvalue = 0.187428", fillcolor="#fef9f6"] ;
265 -> 266 ;
267 [label="TRUCKS_AAD_avg <= -0.515914\nsquared_error = 0.043923\nsamples = 30\nvalue = 0.247222", fillcolor="#fdf7f2"] ;
266 -> 267 ;
268 [label="squared_error = 0.035217\nsamples = 26\nvalue = 0.221596", fillcolor="#fef8f4"] ;
267 -> 268 ;
269 [label="squared_error = 0.06836\nsamples = 4\nvalue = 0.419286", fillcolor="#fcf1ea"] ;
267 -> 269 ;
270 [label="dayspassed <= -0.75842\nsquared_error = 0.026838\nsamples = 89\nvalue = 0.16315", fillcolor="#fefaf7"] ;
266 -> 270 ;
271 [label="squared_error = 0.080041\nsamples = 6\nvalue = 0.328571", fillcolor="#fdf4ee"] ;
270 -> 271 ;
272 [label="squared_error = 0.022278\nsamples = 83\nvalue = 0.15396", fillcolor="#fefaf7"] ;
270 -> 272 ;
273 [label="squared_error = 0.0\nsamples = 1\nvalue = 0.8", fillcolor="#fae5d6"] ;
265 -> 273 ;
274 [label="rainfall <= 0.94382\nsquared_error = 0.069223\nsamples = 222\nvalue = 0.249685", fillcolor="#fdf7f2"] ;
264 -> 274 ;
275 [label="Above_30_days <= -1.396451\nsquared_error = 0.084361\nsamples = 145\nvalue = 0.271314", fillcolor="#fdf6f1"] ;
274 -> 275 ;
276 [label="rainfall <= 0.630927\nsquared_error = 0.149979\nsamples = 51\nvalue = 0.335823", fillcolor="#fdf4ee"] ;
275 -> 276 ;
277 [label="squared_error = 0.066723\nsamples = 32\nvalue = 0.245306", fillcolor="#fdf7f3"] ;
276 -> 277 ;
278 [label="squared_error = 0.250723\nsamples = 19\nvalue = 0.483667", fillcolor="#fcefe6"] ;
276 -> 278 ;
279 [label="TRUCKS_AAD_avg <= -0.483526\nsquared_error = 0.046456\nsamples = 94\nvalue = 0.23734", fillcolor="#fdf7f3"] ;
275 -> 279 ;
280 [label="squared_error = 0.045462\nsamples = 88\nvalue = 0.250721", fillcolor="#fdf7f2"] ;
279 -> 280 ;
281 [label="squared_error = 0.037475\nsamples = 6\nvalue = 0.107357", fillcolor="#fefcfa"] ;
279 -> 281 ;
282 [label="rainfall <= 1.792356\nsquared_error = 0.038547\nsamples = 77\nvalue = 0.209415", fillcolor="#fef8f4"] ;
274 -> 282 ;
283 [label="TRUCKS_AAD_avg <= -0.614557\nsquared_error = 0.029419\nsamples = 56\nvalue = 0.170304", fillcolor="#fefaf6"] ;
282 -> 283 ;
284 [label="squared_error = 0.082698\nsamples = 6\nvalue = 0.314545", fillcolor="#fdf5ef"] ;
283 -> 284 ;
285 [label="squared_error = 0.018974\nsamples = 50\nvalue = 0.150716", fillcolor="#fefaf7"] ;
283 -> 285 ;
286 [label="TRUCKS_AAD_avg <= -0.573279\nsquared_error = 0.047625\nsamples = 21\nvalue = 0.325484", fillcolor="#fdf4ee"] ;
282 -> 286 ;
287 [label="squared_error = 0.005689\nsamples = 2\nvalue = 0.633333", fillcolor="#fbeade"] ;
286 -> 287 ;
288 [label="squared_error = 0.040876\nsamples = 19\nvalue = 0.2925", fillcolor="#fdf6f0"] ;
286 -> 288 ;
289 [label="rainfall <= 0.14329\nsquared_error = 0.174796\nsamples = 176\nvalue = 0.393356", fillcolor="#fcf2eb"] ;
189 -> 289 ;
290 [label="squared_error = 0.421875\nsamples = 2\nvalue = 1.305", fillcolor="#f6d4bc"] ;
289 -> 290 ;
291 [label="TRUCKS_AAD_avg <= -0.481621\nsquared_error = 0.159819\nsamples = 174\nvalue = 0.380825", fillcolor="#fcf3ec"] ;
289 -> 291 ;
292 [label="TRUCKS_AAD_avg <= -0.487125\nsquared_error = 0.167062\nsamples = 162\nvalue = 0.396162", fillcolor="#fcf2eb"] ;
291 -> 292 ;
293 [label="dayspassed <= 1.608984\nsquared_error = 0.143059\nsamples = 154\nvalue = 0.37969", fillcolor="#fcf3ec"] ;
292 -> 293 ;
294 [label="rainfall <= 1.792356\nsquared_error = 0.234019\nsamples = 18\nvalue = 0.538621", fillcolor="#fbede3"] ;
293 -> 294 ;
295 [label="ALLVEHS_AA_avg <= -0.613771\nsquared_error = 0.03809\nsamples = 10\nvalue = 0.406111", fillcolor="#fcf2ea"] ;
294 -> 295 ;
296 [label="squared_error = 0.038452\nsamples = 9\nvalue = 0.371333", fillcolor="#fdf3ec"] ;
295 -> 296 ;
297 [label="squared_error = -0.0\nsamples = 1\nvalue = 0.58", fillcolor="#fbece1"] ;
295 -> 297 ;
298 [label="TRUCKS_AAD_avg <= -0.520359\nsquared_error = 0.478879\nsamples = 8\nvalue = 0.755455", fillcolor="#fae6d8"] ;
294 -> 298 ;
299 [label="squared_error = 0.497541\nsamples = 7\nvalue = 0.807", fillcolor="#fae5d5"] ;
298 -> 299 ;
300 [label="squared_error = 0.0\nsamples = 1\nvalue = 0.24", fillcolor="#fdf7f3"] ;
298 -> 300 ;
301 [label="rainfall <= 1.301217\nsquared_error = 0.127936\nsamples = 136\nvalue = 0.359563", fillcolor="#fdf3ed"] ;
293 -> 301 ;
302 [label="ALLVEHS_AA_avg <= -0.758416\nsquared_error = 0.157175\nsamples = 70\nvalue = 0.421724", fillcolor="#fcf1e9"] ;
301 -> 302 ;
303 [label="squared_error = 0.212318\nsamples = 27\nvalue = 0.534651", fillcolor="#fbeee4"] ;
302 -> 303 ;
304 [label="squared_error = 0.112756\nsamples = 43\nvalue = 0.355205", fillcolor="#fdf3ed"] ;
302 -> 304 ;
305 [label="ALLVEHS_AA_avg <= -0.667368\nsquared_error = 0.089883\nsamples = 66\nvalue = 0.295752", fillcolor="#fdf5f0"] ;
301 -> 305 ;
306 [label="squared_error = 0.087897\nsamples = 60\nvalue = 0.27198", fillcolor="#fdf6f1"] ;
305 -> 306 ;
307 [label="squared_error = 0.061808\nsamples = 6\nvalue = 0.495833", fillcolor="#fcefe6"] ;
305 -> 307 ;
308 [label="rainfall <= 1.246433\nsquared_error = 0.531175\nsamples = 8\nvalue = 0.723077", fillcolor="#fae7da"] ;
292 -> 308 ;
309 [label="squared_error = 0.001722\nsamples = 4\nvalue = 0.146667", fillcolor="#fefaf8"] ;
308 -> 309 ;
310 [label="ALLVEHS_AA_avg <= -0.523853\nsquared_error = 0.456106\nsamples = 4\nvalue = 1.217143", fillcolor="#f7d7c0"] ;
308 -> 310 ;
311 [label="squared_error = 0.0\nsamples = 1\nvalue = 0.5", fillcolor="#fcefe5"] ;
310 -> 311 ;
312 [label="squared_error = 0.350544\nsamples = 3\nvalue = 1.504", fillcolor="#f5ceb1"] ;
310 -> 312 ;
313 [label="Above_30_days <= -0.472344\nsquared_error = 0.015291\nsamples = 12\nvalue = 0.173", fillcolor="#fef9f6"] ;
291 -> 313 ;
314 [label="squared_error = 0.0032\nsamples = 2\nvalue = 0.25", fillcolor="#fdf7f2"] ;
313 -> 314 ;
315 [label="ALLVEHS_AA_avg <= -0.313731\nsquared_error = 0.016194\nsamples = 10\nvalue = 0.159412", fillcolor="#fefaf7"] ;
313 -> 315 ;
316 [label="squared_error = 0.010681\nsamples = 4\nvalue = 0.158333", fillcolor="#fefaf7"] ;
315 -> 316 ;
317 [label="squared_error = 0.0192\nsamples = 6\nvalue = 0.16", fillcolor="#fefaf7"] ;
315 -> 317 ;
318 [label="Above_30_days <= 0.525692\nsquared_error = 0.094929\nsamples = 3458\nvalue = 0.239418", fillcolor="#fdf7f3"] ;
0 -> 318 [labeldistance=2.5, labelangle=-45, headlabel="False"] ;
319 [label="ALLVEHS_AA_avg <= 2.936839\nsquared_error = 0.123458\nsamples = 2030\nvalue = 0.281066", fillcolor="#fdf6f1"] ;
318 -> 319 ;
320 [label="dayspassed <= -0.050446\nsquared_error = 0.11314\nsamples = 1991\nvalue = 0.272201", fillcolor="#fdf6f1"] ;
319 -> 320 ;
321 [label="TRUCKS_AAD_avg <= -0.054023\nsquared_error = 0.094793\nsamples = 1212\nvalue = 0.240702", fillcolor="#fdf7f3"] ;
320 -> 321 ;
322 [label="TRUCKS_AAD_avg <= -0.05614\nsquared_error = 0.107324\nsamples = 904\nvalue = 0.269261", fillcolor="#fdf6f1"] ;
321 -> 322 ;
323 [label="dayspassed <= -1.061837\nsquared_error = 0.104327\nsamples = 902\nvalue = 0.267214", fillcolor="#fdf6f1"] ;
322 -> 323 ;
324 [label="TRUCKS_AAD_avg <= -0.427854\nsquared_error = 0.119521\nsamples = 367\nvalue = 0.315296", fillcolor="#fdf5ef"] ;
323 -> 324 ;
325 [label="TRUCKS_AAD_avg <= -0.454526\nsquared_error = 0.212256\nsamples = 58\nvalue = 0.443187", fillcolor="#fcf1e8"] ;
324 -> 325 ;
326 [label="dayspassed <= -1.518836\nsquared_error = 0.023463\nsamples = 26\nvalue = 0.228659", fillcolor="#fdf8f3"] ;
325 -> 326 ;
327 [label="squared_error = 0.022245\nsamples = 17\nvalue = 0.194655", fillcolor="#fef9f5"] ;
326 -> 327 ;
328 [label="squared_error = 0.016862\nsamples = 9\nvalue = 0.310833", fillcolor="#fdf5ef"] ;
326 -> 328 ;
329 [label="rainfall <= -0.90586\nsquared_error = 0.298383\nsamples = 32\nvalue = 0.6191", fillcolor="#fbebdf"] ;
325 -> 329 ;
330 [label="squared_error = 0.108058\nsamples = 16\nvalue = 0.4475", fillcolor="#fcf0e8"] ;
329 -> 330 ;
331 [label="squared_error = 0.438108\nsamples = 16\nvalue = 0.805", fillcolor="#fae5d6"] ;
329 -> 331 ;
332 [label="ALLVEHS_AA_avg <= 0.179918\nsquared_error = 0.098387\nsamples = 309\nvalue = 0.291201", fillcolor="#fdf6f0"] ;
324 -> 332 ;
333 [label="rainfall <= -0.583479\nsquared_error = 0.091851\nsamples = 301\nvalue = 0.284023", fillcolor="#fdf6f1"] ;
332 -> 333 ;
334 [label="squared_error = 0.061991\nsamples = 173\nvalue = 0.251963", fillcolor="#fdf7f2"] ;
333 -> 334 ;
335 [label="squared_error = 0.128726\nsamples = 128\nvalue = 0.32709", fillcolor="#fdf4ee"] ;
333 -> 335 ;
336 [label="TRUCKS_AAD_avg <= -0.353977\nsquared_error = 0.273523\nsamples = 8\nvalue = 0.572917", fillcolor="#fbece2"] ;
332 -> 336 ;
337 [label="squared_error = 0.127817\nsamples = 6\nvalue = 0.425", fillcolor="#fcf1e9"] ;
336 -> 337 ;
338 [label="squared_error = 0.448089\nsamples = 2\nvalue = 1.016667", fillcolor="#f8decb"] ;
336 -> 338 ;
339 [label="rainfall <= -1.280314\nsquared_error = 0.09094\nsamples = 535\nvalue = 0.233557", fillcolor="#fdf7f3"] ;
323 -> 339 ;
340 [label="TRUCKS_AAD_avg <= -0.406474\nsquared_error = 0.92616\nsamples = 13\nvalue = 0.526176", fillcolor="#fbeee4"] ;
339 -> 340 ;
341 [label="TRUCKS_AAD_avg <= -0.413671\nsquared_error = 1.679378\nsamples = 4\nvalue = 1.052143", fillcolor="#f8ddc9"] ;
340 -> 341 ;
342 [label="squared_error = 0.005742\nsamples = 2\nvalue = 0.18625", fillcolor="#fef9f6"] ;
341 -> 342 ;
343 [label="squared_error = 1.578272\nsamples = 2\nvalue = 2.206667", fillcolor="#f0b68d"] ;
341 -> 343 ;
344 [label="TRUCKS_AAD_avg <= -0.388693\nsquared_error = 0.069706\nsamples = 9\nvalue = 0.158", fillcolor="#fefaf7"] ;
340 -> 344 ;
345 [label="squared_error = 2.2e-05\nsamples = 2\nvalue = 0.013333", fillcolor="#ffffff"] ;
344 -> 345 ;
346 [label="squared_error = 0.086757\nsamples = 7\nvalue = 0.22", fillcolor="#fef8f4"] ;
344 -> 346 ;
347 [label="Above_30_days <= 0.303906\nsquared_error = 0.071407\nsamples = 522\nvalue = 0.227362", fillcolor="#fdf8f3"] ;
339 -> 347 ;
348 [label="ALLVEHS_AA_avg <= -0.365485\nsquared_error = 0.06605\nsamples = 486\nvalue = 0.216527", fillcolor="#fef8f4"] ;
347 -> 348 ;
349 [label="squared_error = 0.117185\nsamples = 148\nvalue = 0.271677", fillcolor="#fdf6f1"] ;
348 -> 349 ;
350 [label="squared_error = 0.043402\nsamples = 338\nvalue = 0.193989", fillcolor="#fef9f5"] ;
348 -> 350 ;
351 [label="ALLVEHS_AA_avg <= -0.274927\nsquared_error = 0.120953\nsamples = 36\nvalue = 0.374727", fillcolor="#fcf3ec"] ;
347 -> 351 ;
352 [label="squared_error = 0.032713\nsamples = 20\nvalue = 0.227679", fillcolor="#fdf8f3"] ;
351 -> 352 ;
353 [label="squared_error = 0.166782\nsamples = 16\nvalue = 0.527222", fillcolor="#fbeee4"] ;
351 -> 353 ;
354 [label="squared_error = 0.59405\nsamples = 2\nvalue = 1.22", fillcolor="#f7d7c0"] ;
322 -> 354 ;
355 [label="dayspassed <= -1.01314\nsquared_error = 0.048708\nsamples = 308\nvalue = 0.157061", fillcolor="#fefaf7"] ;
321 -> 355 ;
356 [label="TRUCKS_AAD_avg <= 1.849211\nsquared_error = 0.045098\nsamples = 93\nvalue = 0.219891", fillcolor="#fef8f4"] ;
355 -> 356 ;
357 [label="TRUCKS_AAD_avg <= 0.068753\nsquared_error = 0.052672\nsamples = 42\nvalue = 0.289", fillcolor="#fdf6f0"] ;
356 -> 357 ;
358 [label="squared_error = 0.098739\nsamples = 3\nvalue = 0.606667", fillcolor="#fbebe0"] ;
357 -> 358 ;
359 [label="dayspassed <= -1.541311\nsquared_error = 0.044657\nsamples = 39\nvalue = 0.272281", fillcolor="#fdf6f1"] ;
357 -> 359 ;
360 [label="ALLVEHS_AA_avg <= 1.313059\nsquared_error = 0.05942\nsamples = 25\nvalue = 0.316111", fillcolor="#fdf5ef"] ;
359 -> 360 ;
361 [label="squared_error = 0.078811\nsamples = 15\nvalue = 0.36975", fillcolor="#fdf3ec"] ;
360 -> 361 ;
362 [label="squared_error = 0.027088\nsamples = 10\nvalue = 0.249063", fillcolor="#fdf7f2"] ;
360 -> 362 ;
363 [label="TRUCKS_AAD_avg <= 0.228149\nsquared_error = 0.010411\nsamples = 14\nvalue = 0.197143", fillcolor="#fef9f5"] ;
359 -> 363 ;
364 [label="squared_error = 0.009087\nsamples = 9\nvalue = 0.167308", fillcolor="#fefaf7"] ;
363 -> 364 ;
365 [label="squared_error = 0.008765\nsamples = 5\nvalue = 0.245625", fillcolor="#fdf7f3"] ;
363 -> 365 ;
366 [label="ALLVEHS_AA_avg <= 2.773292\nsquared_error = 0.032772\nsamples = 51\nvalue = 0.166731", fillcolor="#fefaf7"] ;
356 -> 366 ;
367 [label="ALLVEHS_AA_avg <= 2.235927\nsquared_error = 0.007182\nsamples = 16\nvalue = 0.105", fillcolor="#fefcfa"] ;
366 -> 367 ;
368 [label="TRUCKS_AAD_avg <= 3.034631\nsquared_error = 0.010256\nsamples = 5\nvalue = 0.157", fillcolor="#fefaf7"] ;
367 -> 368 ;
369 [label="squared_error = 0.015606\nsamples = 2\nvalue = 0.127", fillcolor="#fefbf9"] ;
368 -> 369 ;
370 [label="squared_error = 0.003106\nsamples = 3\nvalue = 0.187", fillcolor="#fef9f6"] ;
368 -> 370 ;
371 [label="ALLVEHS_AA_avg <= 2.352745\nsquared_error = 0.003138\nsamples = 11\nvalue = 0.076111", fillcolor="#fffdfb"] ;
367 -> 371 ;
372 [label="squared_error = 0.001176\nsamples = 2\nvalue = 0.048", fillcolor="#fffefd"] ;
371 -> 372 ;
373 [label="squared_error = 0.003471\nsamples = 9\nvalue = 0.086923", fillcolor="#fefcfb"] ;
371 -> 373 ;
374 [label="TRUCKS_AAD_avg <= 2.674771\nsquared_error = 0.043773\nsamples = 35\nvalue = 0.2013", fillcolor="#fef9f5"] ;
366 -> 374 ;
375 [label="rainfall <= -0.993176\nsquared_error = 0.022468\nsamples = 19\nvalue = 0.138846", fillcolor="#fefbf8"] ;
374 -> 375 ;
376 [label="squared_error = 0.00245\nsamples = 2\nvalue = 0.07", fillcolor="#fffdfc"] ;
375 -> 376 ;
377 [label="squared_error = 0.02438\nsamples = 17\nvalue = 0.147826", fillcolor="#fefaf8"] ;
375 -> 377 ;
378 [label="dayspassed <= -1.844728\nsquared_error = 0.05805\nsamples = 16\nvalue = 0.268958", fillcolor="#fdf6f1"] ;
374 -> 378 ;
379 [label="squared_error = 0.031603\nsamples = 11\nvalue = 0.202667", fillcolor="#fef8f5"] ;
378 -> 379 ;
380 [label="squared_error = 0.082597\nsamples = 5\nvalue = 0.379444", fillcolor="#fcf3ec"] ;
378 -> 380 ;
381 [label="TRUCKS_AAD_avg <= 3.235729\nsquared_error = 0.047916\nsamples = 215\nvalue = 0.131484", fillcolor="#fefbf8"] ;
355 -> 381 ;
382 [label="TRUCKS_AAD_avg <= 2.611266\nsquared_error = 0.036553\nsamples = 210\nvalue = 0.125176", fillcolor="#fefbf9"] ;
381 -> 382 ;
383 [label="ALLVEHS_AA_avg <= 1.908834\nsquared_error = 0.057346\nsamples = 103\nvalue = 0.157534", fillcolor="#fefaf7"] ;
382 -> 383 ;
384 [label="rainfall <= 0.121828\nsquared_error = 0.014805\nsamples = 83\nvalue = 0.116652", fillcolor="#fefbf9"] ;
383 -> 384 ;
385 [label="squared_error = 0.008252\nsamples = 70\nvalue = 0.097632", fillcolor="#fefcfa"] ;
384 -> 385 ;
386 [label="squared_error = 0.039501\nsamples = 13\nvalue = 0.237111", fillcolor="#fdf7f3"] ;
384 -> 386 ;
387 [label="TRUCKS_AAD_avg <= 1.870379\nsquared_error = 0.201068\nsamples = 20\nvalue = 0.331613", fillcolor="#fdf4ee"] ;
383 -> 387 ;
388 [label="squared_error = 0.412455\nsamples = 7\nvalue = 0.78875", fillcolor="#fae5d6"] ;
387 -> 388 ;
389 [label="squared_error = 0.029574\nsamples = 13\nvalue = 0.172609", fillcolor="#fef9f6"] ;
387 -> 389 ;
390 [label="Above_30_days <= 0.229978\nsquared_error = 0.014239\nsamples = 107\nvalue = 0.093593", fillcolor="#fefcfa"] ;
382 -> 390 ;
391 [label="ALLVEHS_AA_avg <= 2.796656\nsquared_error = 0.015233\nsamples = 71\nvalue = 0.077699", fillcolor="#fffdfb"] ;
390 -> 391 ;
392 [label="squared_error = 0.020141\nsamples = 48\nvalue = 0.0915", fillcolor="#fefcfb"] ;
391 -> 392 ;
393 [label="squared_error = 0.001753\nsamples = 23\nvalue = 0.044242", fillcolor="#fffefd"] ;
391 -> 393 ;
394 [label="TRUCKS_AAD_avg <= 3.193392\nsquared_error = 0.010523\nsamples = 36\nvalue = 0.126852", fillcolor="#fefbf9"] ;
390 -> 394 ;
395 [label="squared_error = 0.004738\nsamples = 28\nvalue = 0.10675", fillcolor="#fefcfa"] ;
394 -> 395 ;
396 [label="squared_error = 0.022599\nsamples = 8\nvalue = 0.184286", fillcolor="#fef9f6"] ;
394 -> 396 ;
397 [label="Above_30_days <= 0.229978\nsquared_error = 0.409601\nsamples = 5\nvalue = 0.362778", fillcolor="#fdf3ec"] ;
381 -> 397 ;
398 [label="ALLVEHS_AA_avg <= 2.82002\nsquared_error = 0.000116\nsamples = 3\nvalue = 0.023", fillcolor="#fffefe"] ;
397 -> 398 ;
399 [label="TRUCKS_AAD_avg <= 3.373322\nsquared_error = 6e-06\nsamples = 2\nvalue = 0.031667", fillcolor="#fffefe"] ;
398 -> 399 ;
400 [label="squared_error = 0.0\nsamples = 1\nvalue = 0.03", fillcolor="#fffefe"] ;
399 -> 400 ;
401 [label="squared_error = 0.0\nsamples = 1\nvalue = 0.035", fillcolor="#fffefd"] ;
399 -> 401 ;
402 [label="squared_error = 0.0\nsamples = 1\nvalue = 0.01", fillcolor="#ffffff"] ;
398 -> 402 ;
403 [label="squared_error = 0.596756\nsamples = 2\nvalue = 0.7875", fillcolor="#fae5d6"] ;
397 -> 403 ;
404 [label="ALLVEHS_AA_avg <= 2.749929\nsquared_error = 0.137051\nsamples = 779\nvalue = 0.31969", fillcolor="#fdf5ef"] ;
320 -> 404 ;
405 [label="rainfall <= -0.903488\nsquared_error = 0.126549\nsamples = 721\nvalue = 0.295617", fillcolor="#fdf5f0"] ;
404 -> 405 ;
406 [label="TRUCKS_AAD_avg <= -0.384459\nsquared_error = 0.305467\nsamples = 67\nvalue = 0.498727", fillcolor="#fcefe5"] ;
405 -> 406 ;
407 [label="ALLVEHS_AA_avg <= -0.497481\nsquared_error = 0.088216\nsamples = 28\nvalue = 0.262051", fillcolor="#fdf7f2"] ;
406 -> 407 ;
408 [label="ALLVEHS_AA_avg <= -0.561108\nsquared_error = 0.222522\nsamples = 8\nvalue = 0.343333", fillcolor="#fdf4ed"] ;
407 -> 408 ;
409 [label="squared_error = 0.155742\nsamples = 7\nvalue = 0.258182", fillcolor="#fdf7f2"] ;
408 -> 409 ;
410 [label="squared_error = -0.0\nsamples = 1\nvalue = 1.28", fillcolor="#f6d5bd"] ;
408 -> 410 ;
411 [label="TRUCKS_AAD_avg <= -0.406897\nsquared_error = 0.024283\nsamples = 20\nvalue = 0.225926", fillcolor="#fdf8f4"] ;
407 -> 411 ;
412 [label="ALLVEHS_AA_avg <= -0.411138\nsquared_error = 0.011729\nsamples = 11\nvalue = 0.183529", fillcolor="#fef9f6"] ;
411 -> 412 ;
413 [label="squared_error = 0.007148\nsamples = 8\nvalue = 0.225385", fillcolor="#fef8f4"] ;
412 -> 413 ;
414 [label="squared_error = 0.002419\nsamples = 3\nvalue = 0.0475", fillcolor="#fffefd"] ;
412 -> 414 ;
415 [label="ALLVEHS_AA_avg <= -0.313103\nsquared_error = 0.037376\nsamples = 9\nvalue = 0.298", fillcolor="#fdf5f0"] ;
411 -> 415 ;
416 [label="squared_error = 0.033673\nsamples = 7\nvalue = 0.34625", fillcolor="#fdf4ed"] ;
415 -> 416 ;
417 [label="squared_error = 0.005625\nsamples = 2\nvalue = 0.105", fillcolor="#fefcfa"] ;
415 -> 417 ;
418 [label="TRUCKS_AAD_avg <= -0.375992\nsquared_error = 0.377132\nsamples = 39\nvalue = 0.628732", fillcolor="#fbeadf"] ;
406 -> 418 ;
419 [label="squared_error = 0.373579\nsamples = 5\nvalue = 1.128182", fillcolor="#f7dac5"] ;
418 -> 419 ;
420 [label="rainfall <= -1.216493\nsquared_error = 0.323667\nsamples = 34\nvalue = 0.537167", fillcolor="#fbede3"] ;
418 -> 420 ;
421 [label="dayspassed <= 1.122018\nsquared_error = 0.251718\nsamples = 27\nvalue = 0.437234", fillcolor="#fcf1e9"] ;
420 -> 421 ;
422 [label="squared_error = 0.456199\nsamples = 11\nvalue = 0.693529", fillcolor="#fae8db"] ;
421 -> 422 ;
423 [label="squared_error = 0.077529\nsamples = 16\nvalue = 0.292", fillcolor="#fdf6f0"] ;
421 -> 423 ;
424 [label="ALLVEHS_AA_avg <= -0.331187\nsquared_error = 0.417151\nsamples = 7\nvalue = 0.898462", fillcolor="#f9e2d1"] ;
420 -> 424 ;
425 [label="squared_error = 0.141919\nsamples = 2\nvalue = 0.4875", fillcolor="#fcefe6"] ;
424 -> 425 ;
426 [label="squared_error = 0.431054\nsamples = 5\nvalue = 1.081111", fillcolor="#f8dcc7"] ;
424 -> 426 ;
427 [label="rainfall <= 1.916497\nsquared_error = 0.102823\nsamples = 654\nvalue = 0.274155", fillcolor="#fdf6f1"] ;
405 -> 427 ;
428 [label="rainfall <= 1.594003\nsquared_error = 0.12263\nsamples = 454\nvalue = 0.309193", fillcolor="#fdf5ef"] ;
427 -> 428 ;
429 [label="dayspassed <= 1.743836\nsquared_error = 0.110953\nsamples = 354\nvalue = 0.27679", fillcolor="#fdf6f1"] ;
428 -> 429 ;
430 [label="rainfall <= 0.324248\nsquared_error = 0.100302\nsamples = 342\nvalue = 0.268631", fillcolor="#fdf6f1"] ;
429 -> 430 ;
431 [label="squared_error = 0.173017\nsamples = 57\nvalue = 0.363421", fillcolor="#fdf3ec"] ;
430 -> 431 ;
432 [label="squared_error = 0.082328\nsamples = 285\nvalue = 0.248258", fillcolor="#fdf7f2"] ;
430 -> 432 ;
433 [label="TRUCKS_AAD_avg <= -0.391021\nsquared_error = 0.356935\nsamples = 12\nvalue = 0.507368", fillcolor="#fceee5"] ;
429 -> 433 ;
434 [label="squared_error = 0.652984\nsamples = 4\nvalue = 1.146", fillcolor="#f7d9c4"] ;
433 -> 434 ;
435 [label="squared_error = 0.053521\nsamples = 8\nvalue = 0.279286", fillcolor="#fdf6f1"] ;
433 -> 435 ;
436 [label="TRUCKS_AAD_avg <= -0.18243\nsquared_error = 0.146224\nsamples = 100\nvalue = 0.415799", fillcolor="#fcf1ea"] ;
428 -> 436 ;
437 [label="ALLVEHS_AA_avg <= -0.634875\nsquared_error = 0.122053\nsamples = 77\nvalue = 0.358824", fillcolor="#fdf3ed"] ;
436 -> 437 ;
438 [label="squared_error = 0.22746\nsamples = 13\nvalue = 0.581429", fillcolor="#fbece1"] ;
437 -> 438 ;
439 [label="squared_error = 0.092104\nsamples = 64\nvalue = 0.318174", fillcolor="#fdf5ef"] ;
437 -> 439 ;
440 [label="dayspassed <= 0.897265\nsquared_error = 0.177327\nsamples = 23\nvalue = 0.650606", fillcolor="#fbeade"] ;
436 -> 440 ;
441 [label="squared_error = 0.000625\nsamples = 2\nvalue = 0.255", fillcolor="#fdf7f2"] ;
440 -> 441 ;
442 [label="squared_error = 0.177135\nsamples = 21\nvalue = 0.705172", fillcolor="#fae8db"] ;
440 -> 442 ;
443 [label="ALLVEHS_AA_avg <= -0.558095\nsquared_error = 0.048103\nsamples = 200\nvalue = 0.193766", fillcolor="#fef9f5"] ;
427 -> 443 ;
444 [label="TRUCKS_AAD_avg <= -0.466803\nsquared_error = 0.045272\nsamples = 10\nvalue = 0.396667", fillcolor="#fcf2eb"] ;
443 -> 444 ;
445 [label="squared_error = 0.0\nsamples = 1\nvalue = 0.24", fillcolor="#fdf7f3"] ;
444 -> 445 ;
446 [label="rainfall <= 2.394985\nsquared_error = 0.046954\nsamples = 9\nvalue = 0.410909", fillcolor="#fcf2ea"] ;
444 -> 446 ;
447 [label="squared_error = 0.053535\nsamples = 5\nvalue = 0.417143", fillcolor="#fcf1ea"] ;
446 -> 447 ;
448 [label="squared_error = 0.03525\nsamples = 4\nvalue = 0.4", fillcolor="#fcf2eb"] ;
446 -> 448 ;
449 [label="rainfall <= 2.200698\nsquared_error = 0.046526\nsamples = 190\nvalue = 0.185757", fillcolor="#fef9f6"] ;
443 -> 449 ;
450 [label="ALLVEHS_AA_avg <= 1.149513\nsquared_error = 0.021618\nsamples = 36\nvalue = 0.112308", fillcolor="#fefbf9"] ;
449 -> 450 ;
451 [label="squared_error = 0.048827\nsamples = 9\nvalue = 0.19", fillcolor="#fef9f5"] ;
450 -> 451 ;
452 [label="squared_error = 0.007148\nsamples = 27\nvalue = 0.080811", fillcolor="#fefdfb"] ;
450 -> 452 ;
453 [label="TRUCKS_AAD_avg <= 0.015071\nsquared_error = 0.050323\nsamples = 154\nvalue = 0.200913", fillcolor="#fef9f5"] ;
449 -> 453 ;
454 [label="squared_error = 0.041056\nsamples = 144\nvalue = 0.187143", fillcolor="#fef9f6"] ;
453 -> 454 ;
455 [label="squared_error = 0.149839\nsamples = 10\nvalue = 0.435", fillcolor="#fcf1e9"] ;
453 -> 455 ;
456 [label="rainfall <= 0.140918\nsquared_error = 0.170482\nsamples = 58\nvalue = 0.62087", fillcolor="#fbebdf"] ;
404 -> 456 ;
457 [label="TRUCKS_AAD_avg <= 2.92879\nsquared_error = 7.5e-05\nsamples = 3\nvalue = 0.055", fillcolor="#fffdfc"] ;
456 -> 457 ;
458 [label="squared_error = 8.9e-05\nsamples = 2\nvalue = 0.056667", fillcolor="#fffdfc"] ;
457 -> 458 ;
459 [label="squared_error = -0.0\nsamples = 1\nvalue = 0.05", fillcolor="#fffefd"] ;
457 -> 459 ;
460 [label="ALLVEHS_AA_avg <= 2.831702\nsquared_error = 0.163011\nsamples = 55\nvalue = 0.646591", fillcolor="#fbeade"] ;
456 -> 460 ;
461 [label="dayspassed <= 0.526421\nsquared_error = 0.1639\nsamples = 49\nvalue = 0.698784", fillcolor="#fae8db"] ;
460 -> 461 ;
462 [label="TRUCKS_AAD_avg <= 2.674771\nsquared_error = 0.155633\nsamples = 19\nvalue = 0.820667", fillcolor="#f9e4d5"] ;
461 -> 462 ;
463 [label="ALLVEHS_AA_avg <= 2.796656\nsquared_error = 0.163004\nsamples = 16\nvalue = 0.887083", fillcolor="#f9e2d1"] ;
462 -> 463 ;
464 [label="squared_error = 0.111958\nsamples = 8\nvalue = 0.819167", fillcolor="#f9e4d5"] ;
463 -> 464 ;
465 [label="squared_error = 0.204825\nsamples = 8\nvalue = 0.955", fillcolor="#f9e0ce"] ;
463 -> 465 ;
466 [label="squared_error = 0.037925\nsamples = 3\nvalue = 0.555", fillcolor="#fbede3"] ;
462 -> 466 ;
467 [label="rainfall <= 0.933653\nsquared_error = 0.152502\nsamples = 30\nvalue = 0.615682", fillcolor="#fbebdf"] ;
461 -> 467 ;
468 [label="TRUCKS_AAD_avg <= 2.632435\nsquared_error = 0.070181\nsamples = 7\nvalue = 0.343", fillcolor="#fdf4ee"] ;
467 -> 468 ;
469 [label="squared_error = 0.013356\nsamples = 3\nvalue = 0.116667", fillcolor="#fefbf9"] ;
468 -> 469 ;
470 [label="squared_error = 0.063171\nsamples = 4\nvalue = 0.44", fillcolor="#fcf1e8"] ;
468 -> 470 ;
471 [label="TRUCKS_AAD_avg <= 2.685355\nsquared_error = 0.148412\nsamples = 23\nvalue = 0.695882", fillcolor="#fae8db"] ;
467 -> 471 ;
472 [label="squared_error = 0.146975\nsamples = 19\nvalue = 0.748966", fillcolor="#fae6d8"] ;
471 -> 472 ;
473 [label="squared_error = 0.045616\nsamples = 4\nvalue = 0.388", fillcolor="#fcf2eb"] ;
471 -> 473 ;
474 [label="rainfall <= 0.948451\nsquared_error = 0.067807\nsamples = 6\nvalue = 0.370714", fillcolor="#fdf3ec"] ;
460 -> 474 ;
475 [label="ALLVEHS_AA_avg <= 2.855065\nsquared_error = 0.012588\nsamples = 4\nvalue = 0.188889", fillcolor="#fef9f5"] ;
474 -> 475 ;
476 [label="squared_error = 0.0\nsamples = 1\nvalue = 0.5", fillcolor="#fcefe5"] ;
475 -> 476 ;
477 [label="rainfall <= 0.522827\nsquared_error = 0.00055\nsamples = 3\nvalue = 0.15", fillcolor="#fefaf7"] ;
475 -> 477 ;
478 [label="squared_error = 0.0\nsamples = 1\nvalue = 0.13", fillcolor="#fefbf9"] ;
477 -> 478 ;
479 [label="squared_error = 0.0003\nsamples = 2\nvalue = 0.17", fillcolor="#fefaf6"] ;
477 -> 479 ;
480 [label="squared_error = 0.000576\nsamples = 2\nvalue = 0.698", fillcolor="#fae8db"] ;
474 -> 480 ;
481 [label="dayspassed <= -0.031717\nsquared_error = 0.448298\nsamples = 39\nvalue = 0.765877", fillcolor="#fae6d8"] ;
319 -> 481 ;
482 [label="Above_37_5_days <= -1.186933\nsquared_error = 0.00239\nsamples = 8\nvalue = 0.057222", fillcolor="#fffdfc"] ;
481 -> 482 ;
483 [label="squared_error = 0.0\nsamples = 1\nvalue = 0.175", fillcolor="#fef9f6"] ;
482 -> 483 ;
484 [label="TRUCKS_AAD_avg <= 2.92879\nsquared_error = 0.000737\nsamples = 7\nvalue = 0.0425", fillcolor="#fffefd"] ;
482 -> 484 ;
485 [label="squared_error = 0.000539\nsamples = 3\nvalue = 0.066667", fillcolor="#fffdfc"] ;
484 -> 485 ;
486 [label="ALLVEHS_AA_avg <= 3.100385\nsquared_error = 0.000296\nsamples = 4\nvalue = 0.028", fillcolor="#fffefe"] ;
484 -> 486 ;
487 [label="squared_error = 0.0\nsamples = 1\nvalue = 0.035", fillcolor="#fffefd"] ;
486 -> 487 ;
488 [label="squared_error = 0.000355\nsamples = 3\nvalue = 0.02625", fillcolor="#fffefe"] ;
486 -> 488 ;
489 [label="ALLVEHS_AA_avg <= 3.077021\nsquared_error = 0.42009\nsamples = 31\nvalue = 0.89875", fillcolor="#f9e2d1"] ;
481 -> 489 ;
490 [label="dayspassed <= 1.118272\nsquared_error = 0.226791\nsamples = 26\nvalue = 0.775366", fillcolor="#fae6d7"] ;
489 -> 490 ;
491 [label="rainfall <= 0.99578\nsquared_error = 0.080736\nsamples = 11\nvalue = 0.578333", fillcolor="#fbece1"] ;
490 -> 491 ;
492 [label="squared_error = 0.0121\nsamples = 2\nvalue = 0.93", fillcolor="#f9e1cf"] ;
491 -> 492 ;
493 [label="rainfall <= 1.609026\nsquared_error = 0.054917\nsamples = 9\nvalue = 0.477857", fillcolor="#fcefe7"] ;
491 -> 493 ;
494 [label="TRUCKS_AAD_avg <= 2.886453\nsquared_error = 0.039169\nsamples = 8\nvalue = 0.5375", fillcolor="#fbede3"] ;
493 -> 494 ;
495 [label="TRUCKS_AAD_avg <= 2.854701\nsquared_error = 0.031711\nsamples = 5\nvalue = 0.48875", fillcolor="#fcefe6"] ;
494 -> 495 ;
496 [label="squared_error = 0.033725\nsamples = 4\nvalue = 0.535", fillcolor="#fbeee4"] ;
495 -> 496 ;
497 [label="squared_error = -0.0\nsamples = 1\nvalue = 0.35", fillcolor="#fdf4ed"] ;
495 -> 497 ;
498 [label="TRUCKS_AAD_avg <= 3.182808\nsquared_error = 0.039825\nsamples = 3\nvalue = 0.635", fillcolor="#fbeade"] ;
494 -> 498 ;
499 [label="squared_error = 0.0\nsamples = 1\nvalue = 0.73", fillcolor="#fae7d9"] ;
498 -> 499 ;
500 [label="squared_error = 0.049089\nsamples = 2\nvalue = 0.603333", fillcolor="#fbebe0"] ;
498 -> 500 ;
501 [label="squared_error = -0.0\nsamples = 1\nvalue = 0.12", fillcolor="#fefbf9"] ;
493 -> 501 ;
502 [label="TRUCKS_AAD_avg <= 3.024047\nsquared_error = 0.286935\nsamples = 15\nvalue = 0.929565", fillcolor="#f9e1cf"] ;
490 -> 502 ;
503 [label="ALLVEHS_AA_avg <= 3.030293\nsquared_error = 0.390133\nsamples = 10\nvalue = 1.04", fillcolor="#f8ddc9"] ;
502 -> 503 ;
504 [label="TRUCKS_AAD_avg <= 2.854701\nsquared_error = 0.305876\nsamples = 7\nvalue = 0.992", fillcolor="#f8decc"] ;
503 -> 504 ;
505 [label="TRUCKS_AAD_avg <= 2.833533\nsquared_error = 0.328602\nsamples = 6\nvalue = 1.025556", fillcolor="#f8ddca"] ;
504 -> 505 ;
506 [label="squared_error = 0.366744\nsamples = 5\nvalue = 1.0075", fillcolor="#f8decb"] ;
505 -> 506 ;
507 [label="squared_error = 0.0\nsamples = 1\nvalue = 1.17", fillcolor="#f7d9c3"] ;
505 -> 507 ;
508 [label="squared_error = 0.0\nsamples = 1\nvalue = 0.69", fillcolor="#fae8dc"] ;
504 -> 508 ;
509 [label="squared_error = 0.544824\nsamples = 3\nvalue = 1.136", fillcolor="#f7dac4"] ;
503 -> 509 ;
510 [label="rainfall <= 1.913447\nsquared_error = 0.027694\nsamples = 5\nvalue = 0.7225", fillcolor="#fae7da"] ;
502 -> 510 ;
511 [label="ALLVEHS_AA_avg <= 2.971884\nsquared_error = 0.030625\nsamples = 2\nvalue = 0.615", fillcolor="#fbebdf"] ;
510 -> 511 ;
512 [label="squared_error = 0.0\nsamples = 1\nvalue = 0.44", fillcolor="#fcf1e8"] ;
511 -> 512 ;
513 [label="squared_error = 0.0\nsamples = 1\nvalue = 0.79", fillcolor="#fae5d6"] ;
511 -> 513 ;
514 [label="squared_error = 0.00165\nsamples = 3\nvalue = 0.83", fillcolor="#f9e4d4"] ;
510 -> 514 ;
515 [label="rainfall <= 1.429763\nsquared_error = 0.940841\nsamples = 5\nvalue = 1.621429", fillcolor="#f4caab"] ;
489 -> 515 ;
516 [label="squared_error = 0.13365\nsamples = 3\nvalue = 1.08", fillcolor="#f8dcc7"] ;
515 -> 516 ;
517 [label="TRUCKS_AAD_avg <= 2.939374\nsquared_error = 1.105089\nsamples = 2\nvalue = 2.343333", fillcolor="#efb286"] ;
515 -> 517 ;
518 [label="squared_error = 0.0\nsamples = 1\nvalue = 1.6", fillcolor="#f4caac"] ;
517 -> 518 ;
519 [label="squared_error = 0.0\nsamples = 1\nvalue = 3.83", fillcolor="#e58139"] ;
517 -> 519 ;
520 [label="TRUCKS_AAD_avg <= 0.23143\nsquared_error = 0.049906\nsamples = 1428\nvalue = 0.181993", fillcolor="#fef9f6"] ;
318 -> 520 ;
521 [label="ALLVEHS_AA_avg <= -0.673255\nsquared_error = 0.060451\nsamples = 979\nvalue = 0.211398", fillcolor="#fef8f4"] ;
520 -> 521 ;
522 [label="Above_37_5_days <= 0.483377\nsquared_error = 0.284319\nsamples = 11\nvalue = 0.5689", fillcolor="#fbece2"] ;
521 -> 522 ;
523 [label="squared_error = 0.0\nsamples = 1\nvalue = 1.76", fillcolor="#f3c5a4"] ;
522 -> 523 ;
524 [label="ALLVEHS_AA_avg <= -0.730753\nsquared_error = 0.220683\nsamples = 10\nvalue = 0.506211", fillcolor="#fceee5"] ;
522 -> 524 ;
525 [label="dayspassed <= 0.241733\nsquared_error = 0.142644\nsamples = 5\nvalue = 0.2418", fillcolor="#fdf7f3"] ;
524 -> 525 ;
526 [label="ALLVEHS_AA_avg <= -0.774187\nsquared_error = 0.0065\nsamples = 3\nvalue = 0.16", fillcolor="#fefaf7"] ;
525 -> 526 ;
527 [label="squared_error = 0.0054\nsamples = 2\nvalue = 0.18", fillcolor="#fef9f6"] ;
526 -> 527 ;
528 [label="squared_error = -0.0\nsamples = 1\nvalue = 0.06", fillcolor="#fffdfc"] ;
526 -> 528 ;
529 [label="squared_error = 0.321769\nsamples = 2\nvalue = 0.3645", fillcolor="#fdf3ec"] ;
525 -> 529 ;
530 [label="squared_error = 0.1434\nsamples = 5\nvalue = 0.8", fillcolor="#fae5d6"] ;
524 -> 530 ;
531 [label="ALLVEHS_AA_avg <= 0.380005\nsquared_error = 0.05588\nsamples = 968\nvalue = 0.206773", fillcolor="#fef8f5"] ;
521 -> 531 ;
532 [label="ALLVEHS_AA_avg <= 0.019278\nsquared_error = 0.052002\nsamples = 951\nvalue = 0.202999", fillcolor="#fef8f5"] ;
531 -> 532 ;
533 [label="Above_30_days <= 1.338906\nsquared_error = 0.038553\nsamples = 727\nvalue = 0.189728", fillcolor="#fef9f5"] ;
532 -> 533 ;
534 [label="TRUCKS_AAD_avg <= -0.462358\nsquared_error = 0.036676\nsamples = 703\nvalue = 0.183782", fillcolor="#fef9f6"] ;
533 -> 534 ;
535 [label="rainfall <= -0.32763\nsquared_error = 0.014822\nsamples = 54\nvalue = 0.125867", fillcolor="#fefbf9"] ;
534 -> 535 ;
536 [label="TRUCKS_AAD_avg <= -0.475059\nsquared_error = 0.028263\nsamples = 7\nvalue = 0.177143", fillcolor="#fef9f6"] ;
535 -> 536 ;
537 [label="squared_error = 0.002944\nsamples = 3\nvalue = 0.126", fillcolor="#fefbf9"] ;
536 -> 537 ;
538 [label="squared_error = 0.040069\nsamples = 4\nvalue = 0.205556", fillcolor="#fef8f5"] ;
536 -> 538 ;
539 [label="dayspassed <= 2.125917\nsquared_error = 0.011773\nsamples = 47\nvalue = 0.116421", fillcolor="#fefbf9"] ;
535 -> 539 ;
540 [label="squared_error = 0.011517\nsamples = 45\nvalue = 0.1114", fillcolor="#fefbf9"] ;
539 -> 540 ;
541 [label="squared_error = 0.011025\nsamples = 2\nvalue = 0.175", fillcolor="#fef9f6"] ;
539 -> 541 ;
542 [label="ALLVEHS_AA_avg <= -0.423684\nsquared_error = 0.038299\nsamples = 649\nvalue = 0.188947", fillcolor="#fef9f5"] ;
534 -> 542 ;
543 [label="ALLVEHS_AA_avg <= -0.446814\nsquared_error = 0.06472\nsamples = 76\nvalue = 0.260345", fillcolor="#fdf7f2"] ;
542 -> 543 ;
544 [label="squared_error = 0.026958\nsamples = 56\nvalue = 0.199347", fillcolor="#fef9f5"] ;
543 -> 544 ;
545 [label="squared_error = 0.120579\nsamples = 20\nvalue = 0.391057", fillcolor="#fcf2eb"] ;
543 -> 545 ;
546 [label="rainfall <= 1.961341\nsquared_error = 0.034367\nsamples = 573\nvalue = 0.180211", fillcolor="#fef9f6"] ;
542 -> 546 ;
547 [label="squared_error = 0.034033\nsamples = 556\nvalue = 0.177698", fillcolor="#fef9f6"] ;
546 -> 547 ;
548 [label="squared_error = 0.038217\nsamples = 17\nvalue = 0.264615", fillcolor="#fdf6f2"] ;
546 -> 548 ;
549 [label="TRUCKS_AAD_avg <= -0.381707\nsquared_error = 0.062182\nsamples = 24\nvalue = 0.325875", fillcolor="#fdf4ee"] ;
533 -> 549 ;
550 [label="Above_30_days <= 2.078192\nsquared_error = 0.055063\nsamples = 9\nvalue = 0.465706", fillcolor="#fcf0e7"] ;
549 -> 550 ;
551 [label="squared_error = 0.0\nsamples = 1\nvalue = 0.653", fillcolor="#fbeadd"] ;
550 -> 551 ;
552 [label="ALLVEHS_AA_avg <= -0.51069\nsquared_error = 0.057891\nsamples = 8\nvalue = 0.408077", fillcolor="#fcf2ea"] ;
550 -> 552 ;
553 [label="squared_error = 0.021899\nsamples = 6\nvalue = 0.519", fillcolor="#fceee4"] ;
552 -> 553 ;
554 [label="squared_error = 0.000139\nsamples = 2\nvalue = 0.038333", fillcolor="#fffefd"] ;
552 -> 554 ;
555 [label="ALLVEHS_AA_avg <= -0.427679\nsquared_error = 0.049484\nsamples = 15\nvalue = 0.249194", fillcolor="#fdf7f2"] ;
549 -> 555 ;
556 [label="TRUCKS_AAD_avg <= -0.342969\nsquared_error = 0.032752\nsamples = 6\nvalue = 0.204583", fillcolor="#fef8f5"] ;
555 -> 556 ;
557 [label="squared_error = 0.060664\nsamples = 3\nvalue = 0.271", fillcolor="#fdf6f1"] ;
556 -> 557 ;
558 [label="squared_error = 0.007413\nsamples = 3\nvalue = 0.157143", fillcolor="#fefaf7"] ;
556 -> 558 ;
559 [label="ALLVEHS_AA_avg <= -0.328313\nsquared_error = 0.058001\nsamples = 9\nvalue = 0.277368", fillcolor="#fdf6f1"] ;
555 -> 559 ;
560 [label="squared_error = 0.007006\nsamples = 3\nvalue = 0.328333", fillcolor="#fdf4ee"] ;
559 -> 560 ;
561 [label="squared_error = 0.079785\nsamples = 6\nvalue = 0.253846", fillcolor="#fdf7f2"] ;
559 -> 561 ;
562 [label="TRUCKS_AAD_avg <= -0.442566\nsquared_error = 0.09105\nsamples = 224\nvalue = 0.243698", fillcolor="#fdf7f3"] ;
532 -> 562 ;
563 [label="squared_error = 0.0\nsamples = 1\nvalue = 2.66", fillcolor="#eda876"] ;
562 -> 563 ;
564 [label="ALLVEHS_AA_avg <= 0.224543\nsquared_error = 0.075599\nsamples = 223\nvalue = 0.23722", fillcolor="#fdf7f3"] ;
562 -> 564 ;
565 [label="ALLVEHS_AA_avg <= 0.206343\nsquared_error = 0.096913\nsamples = 153\nvalue = 0.276895", fillcolor="#fdf6f1"] ;
564 -> 565 ;
566 [label="Above_30_days <= 1.043192\nsquared_error = 0.087134\nsamples = 144\nvalue = 0.256817", fillcolor="#fdf7f2"] ;
565 -> 566 ;
567 [label="squared_error = 0.07008\nsamples = 121\nvalue = 0.230421", fillcolor="#fdf8f3"] ;
566 -> 567 ;
568 [label="squared_error = 0.156639\nsamples = 23\nvalue = 0.403886", fillcolor="#fcf2ea"] ;
566 -> 568 ;
569 [label="rainfall <= -0.9838\nsquared_error = 0.149976\nsamples = 9\nvalue = 0.548529", fillcolor="#fbede3"] ;
565 -> 569 ;
570 [label="squared_error = 0.02\nsamples = 2\nvalue = 0.14", fillcolor="#fefbf8"] ;
569 -> 570 ;
571 [label="squared_error = 0.134401\nsamples = 7\nvalue = 0.636071", fillcolor="#fbeade"] ;
569 -> 571 ;
572 [label="rainfall <= -0.878976\nsquared_error = 0.024683\nsamples = 70\nvalue = 0.159444", fillcolor="#fefaf7"] ;
564 -> 572 ;
573 [label="TRUCKS_AAD_avg <= -0.091914\nsquared_error = 0.038415\nsamples = 28\nvalue = 0.245833", fillcolor="#fdf7f3"] ;
572 -> 573 ;
574 [label="squared_error = 0.038662\nsamples = 24\nvalue = 0.27439", fillcolor="#fdf6f1"] ;
573 -> 574 ;
575 [label="squared_error = 0.004212\nsamples = 4\nvalue = 0.078571", fillcolor="#fefdfb"] ;
573 -> 575 ;
576 [label="rainfall <= 0.740835\nsquared_error = 0.008813\nsamples = 42\nvalue = 0.106282", fillcolor="#fefcfa"] ;
572 -> 576 ;
577 [label="squared_error = 0.007462\nsamples = 41\nvalue = 0.101948", fillcolor="#fefcfa"] ;
576 -> 577 ;
578 [label="squared_error = -0.0\nsamples = 1\nvalue = 0.44", fillcolor="#fcf1e8"] ;
576 -> 578 ;
579 [label="ALLVEHS_AA_avg <= 0.404981\nsquared_error = 0.238271\nsamples = 17\nvalue = 0.4364", fillcolor="#fcf1e9"] ;
531 -> 579 ;
580 [label="Above_37_5_days <= 1.411328\nsquared_error = 0.689464\nsamples = 4\nvalue = 0.934", fillcolor="#f9e0cf"] ;
579 -> 580 ;
581 [label="squared_error = 0.719869\nsamples = 3\nvalue = 1.1025", fillcolor="#f8dbc6"] ;
580 -> 581 ;
582 [label="squared_error = -0.0\nsamples = 1\nvalue = 0.26", fillcolor="#fdf7f2"] ;
580 -> 582 ;
583 [label="rainfall <= -0.878976\nsquared_error = 0.048096\nsamples = 13\nvalue = 0.312", fillcolor="#fdf5ef"] ;
579 -> 583 ;
584 [label="TRUCKS_AAD_avg <= -0.046614\nsquared_error = 0.029638\nsamples = 7\nvalue = 0.430769", fillcolor="#fcf1e9"] ;
583 -> 584 ;
585 [label="ALLVEHS_AA_avg <= 0.413252\nsquared_error = 0.020844\nsamples = 4\nvalue = 0.476", fillcolor="#fcefe7"] ;
584 -> 585 ;
586 [label="squared_error = 0.04\nsamples = 2\nvalue = 0.25", fillcolor="#fdf7f2"] ;
585 -> 586 ;
587 [label="squared_error = 9.4e-05\nsamples = 2\nvalue = 0.5325", fillcolor="#fbeee4"] ;
585 -> 587 ;
588 [label="rainfall <= -0.99984\nsquared_error = 0.0294\nsamples = 3\nvalue = 0.28", fillcolor="#fdf6f1"] ;
584 -> 588 ;
589 [label="squared_error = 0.038025\nsamples = 2\nvalue = 0.235", fillcolor="#fdf7f3"] ;
588 -> 589 ;
590 [label="squared_error = 0.0\nsamples = 1\nvalue = 0.37", fillcolor="#fdf3ec"] ;
588 -> 590 ;
591 [label="ALLVEHS_AA_avg <= 0.460073\nsquared_error = 0.007527\nsamples = 6\nvalue = 0.091429", fillcolor="#fefcfb"] ;
583 -> 591 ;
592 [label="ALLVEHS_AA_avg <= 0.416967\nsquared_error = 0.002228\nsamples = 5\nvalue = 0.060833", fillcolor="#fffdfc"] ;
591 -> 592 ;
593 [label="squared_error = 0.000856\nsamples = 3\nvalue = 0.0525", fillcolor="#fffdfd"] ;
592 -> 593 ;
594 [label="squared_error = 0.004556\nsamples = 2\nvalue = 0.0775", fillcolor="#fffdfb"] ;
592 -> 594 ;
595 [label="squared_error = 0.0\nsamples = 1\nvalue = 0.275", fillcolor="#fdf6f1"] ;
591 -> 595 ;
596 [label="TRUCKS_AAD_avg <= 1.740406\nsquared_error = 0.021714\nsamples = 449\nvalue = 0.119429", fillcolor="#fefbf9"] ;
520 -> 596 ;
597 [label="Above_37_5_days <= 1.411328\nsquared_error = 0.01213\nsamples = 248\nvalue = 0.09841", fillcolor="#fefcfa"] ;
596 -> 597 ;
598 [label="ALLVEHS_AA_avg <= 1.423079\nsquared_error = 0.010244\nsamples = 242\nvalue = 0.094236", fillcolor="#fefcfa"] ;
597 -> 598 ;
599 [label="ALLVEHS_AA_avg <= 0.194918\nsquared_error = 0.011535\nsamples = 199\nvalue = 0.101518", fillcolor="#fefcfa"] ;
598 -> 599 ;
600 [label="ALLVEHS_AA_avg <= 0.152162\nsquared_error = 0.02117\nsamples = 32\nvalue = 0.137111", fillcolor="#fefbf8"] ;
599 -> 600 ;
601 [label="rainfall <= -0.532309\nsquared_error = 0.007531\nsamples = 25\nvalue = 0.105143", fillcolor="#fefcfa"] ;
600 -> 601 ;
602 [label="squared_error = 0.012156\nsamples = 4\nvalue = 0.193333", fillcolor="#fef9f5"] ;
601 -> 602 ;
603 [label="Above_30_days <= 1.043192\nsquared_error = 0.004632\nsamples = 21\nvalue = 0.086897", fillcolor="#fefcfb"] ;
601 -> 603 ;
604 [label="squared_error = 0.005347\nsamples = 15\nvalue = 0.100476", fillcolor="#fefcfa"] ;
603 -> 604 ;
605 [label="squared_error = 0.000999\nsamples = 6\nvalue = 0.05125", fillcolor="#fffdfd"] ;
603 -> 605 ;
606 [label="squared_error = 0.052809\nsamples = 7\nvalue = 0.249", fillcolor="#fdf7f2"] ;
600 -> 606 ;
607 [label="ALLVEHS_AA_avg <= 0.881157\nsquared_error = 0.009819\nsamples = 167\nvalue = 0.096014", fillcolor="#fefcfa"] ;
599 -> 607 ;
608 [label="rainfall <= 0.319616\nsquared_error = 0.004888\nsamples = 68\nvalue = 0.076911", fillcolor="#fffdfb"] ;
607 -> 608 ;
609 [label="ALLVEHS_AA_avg <= 0.28599\nsquared_error = 0.005195\nsamples = 61\nvalue = 0.081273", fillcolor="#fefcfb"] ;
608 -> 609 ;
610 [label="squared_error = 8e-05\nsamples = 4\nvalue = 0.02", fillcolor="#fffffe"] ;
609 -> 610 ;
611 [label="squared_error = 0.005251\nsamples = 57\nvalue = 0.08419", fillcolor="#fefcfb"] ;
609 -> 611 ;
612 [label="ALLVEHS_AA_avg <= 0.834103\nsquared_error = 0.000765\nsamples = 7\nvalue = 0.04", fillcolor="#fffefd"] ;
608 -> 612 ;
613 [label="squared_error = 0.0002\nsamples = 2\nvalue = 0.015", fillcolor="#fffffe"] ;
612 -> 613 ;
614 [label="squared_error = 0.000255\nsamples = 5\nvalue = 0.061429", fillcolor="#fffdfc"] ;
612 -> 614 ;
615 [label="rainfall <= -0.532309\nsquared_error = 0.012967\nsamples = 99\nvalue = 0.11", fillcolor="#fefcfa"] ;
607 -> 615 ;
616 [label="ALLVEHS_AA_avg <= 1.369529\nsquared_error = 0.005613\nsamples = 29\nvalue = 0.077727", fillcolor="#fffdfb"] ;
615 -> 616 ;
617 [label="squared_error = 0.006692\nsamples = 23\nvalue = 0.088485", fillcolor="#fefcfb"] ;
616 -> 617 ;
618 [label="squared_error = 0.000988\nsamples = 6\nvalue = 0.045455", fillcolor="#fffefd"] ;
616 -> 618 ;
619 [label="rainfall <= -0.194905\nsquared_error = 0.015076\nsamples = 70\nvalue = 0.121452", fillcolor="#fefbf9"] ;
615 -> 619 ;
620 [label="squared_error = 0.0\nsamples = 1\nvalue = 0.25", fillcolor="#fdf7f2"] ;
619 -> 620 ;
621 [label="squared_error = 0.015048\nsamples = 69\nvalue = 0.119344", fillcolor="#fefbf9"] ;
619 -> 621 ;
622 [label="TRUCKS_AAD_avg <= 1.658274\nsquared_error = 0.002569\nsamples = 43\nvalue = 0.059286", fillcolor="#fffdfc"] ;
598 -> 622 ;
623 [label="TRUCKS_AAD_avg <= 1.588207\nsquared_error = 0.001549\nsamples = 33\nvalue = 0.049434", fillcolor="#fffefd"] ;
622 -> 623 ;
624 [label="squared_error = 0.000327\nsamples = 4\nvalue = 0.021429", fillcolor="#fffefe"] ;
623 -> 624 ;
625 [label="TRUCKS_AAD_avg <= 1.624616\nsquared_error = 0.001597\nsamples = 29\nvalue = 0.053696", fillcolor="#fffdfc"] ;
623 -> 625 ;
626 [label="TRUCKS_AAD_avg <= 1.623769\nsquared_error = 0.002051\nsamples = 14\nvalue = 0.058462", fillcolor="#fffdfc"] ;
625 -> 626 ;
627 [label="squared_error = 0.002894\nsamples = 6\nvalue = 0.053571", fillcolor="#fffdfc"] ;
626 -> 627 ;
628 [label="squared_error = 0.001008\nsamples = 8\nvalue = 0.064167", fillcolor="#fffdfc"] ;
626 -> 628 ;
629 [label="TRUCKS_AAD_avg <= 1.635624\nsquared_error = 0.000939\nsamples = 15\nvalue = 0.0475", fillcolor="#fffefd"] ;
625 -> 629 ;
630 [label="squared_error = 0.000384\nsamples = 4\nvalue = 0.024", fillcolor="#fffefe"] ;
629 -> 630 ;
631 [label="squared_error = 0.000878\nsamples = 11\nvalue = 0.055333", fillcolor="#fffdfc"] ;
629 -> 631 ;
632 [label="ALLVEHS_AA_avg <= 1.471348\nsquared_error = 0.004506\nsamples = 10\nvalue = 0.09", fillcolor="#fefcfb"] ;
622 -> 632 ;
633 [label="squared_error = 0.000225\nsamples = 2\nvalue = 0.085", fillcolor="#fefcfb"] ;
632 -> 633 ;
634 [label="squared_error = 0.005813\nsamples = 8\nvalue = 0.091538", fillcolor="#fefcfb"] ;
632 -> 634 ;
635 [label="TRUCKS_AAD_avg <= 0.341187\nsquared_error = 0.060972\nsamples = 6\nvalue = 0.286667", fillcolor="#fdf6f0"] ;
597 -> 635 ;
636 [label="squared_error = 0.0\nsamples = 1\nvalue = 0.4", fillcolor="#fcf2eb"] ;
635 -> 636 ;
637 [label="squared_error = 0.073674\nsamples = 5\nvalue = 0.254286", fillcolor="#fdf7f2"] ;
635 -> 637 ;
638 [label="ALLVEHS_AA_avg <= 2.796656\nsquared_error = 0.032795\nsamples = 201\nvalue = 0.146604", fillcolor="#fefaf8"] ;
596 -> 638 ;
639 [label="Above_30_days <= 0.821406\nsquared_error = 0.045245\nsamples = 108\nvalue = 0.180408", fillcolor="#fef9f6"] ;
638 -> 639 ;
640 [label="TRUCKS_AAD_avg <= 1.870379\nsquared_error = 0.010134\nsamples = 26\nvalue = 0.11163", fillcolor="#fefbf9"] ;
639 -> 640 ;
641 [label="squared_error = 0.003198\nsamples = 3\nvalue = 0.218571", fillcolor="#fef8f4"] ;
640 -> 641 ;
642 [label="TRUCKS_AAD_avg <= 2.92879\nsquared_error = 0.008958\nsamples = 23\nvalue = 0.092436", fillcolor="#fefcfa"] ;
640 -> 642 ;
643 [label="TRUCKS_AAD_avg <= 2.780612\nsquared_error = 0.011084\nsamples = 14\nvalue = 0.120714", fillcolor="#fefbf9"] ;
642 -> 643 ;
644 [label="rainfall <= 0.446694\nsquared_error = 0.007155\nsamples = 13\nvalue = 0.098684", fillcolor="#fefcfa"] ;
643 -> 644 ;
645 [label="squared_error = 0.005891\nsamples = 9\nvalue = 0.081786", fillcolor="#fefcfb"] ;
644 -> 645 ;
646 [label="squared_error = 0.007654\nsamples = 4\nvalue = 0.146", fillcolor="#fefaf8"] ;
644 -> 646 ;
647 [label="squared_error = -0.0\nsamples = 1\nvalue = 0.33", fillcolor="#fdf4ee"] ;
643 -> 647 ;
648 [label="TRUCKS_AAD_avg <= 2.971126\nsquared_error = 0.004455\nsamples = 9\nvalue = 0.059444", fillcolor="#fffdfc"] ;
642 -> 648 ;
649 [label="squared_error = 5e-06\nsamples = 2\nvalue = 0.00875", fillcolor="#ffffff"] ;
648 -> 649 ;
650 [label="ALLVEHS_AA_avg <= 2.25929\nsquared_error = 0.004783\nsamples = 7\nvalue = 0.073929", fillcolor="#fffdfb"] ;
648 -> 650 ;
651 [label="squared_error = 0.0\nsamples = 1\nvalue = 0.3", fillcolor="#fdf5f0"] ;
650 -> 651 ;
652 [label="squared_error = 0.000917\nsamples = 6\nvalue = 0.056538", fillcolor="#fffdfc"] ;
650 -> 652 ;
653 [label="rainfall <= -0.560097\nsquared_error = 0.054847\nsamples = 82\nvalue = 0.203333", fillcolor="#fef8f5"] ;
639 -> 653 ;
654 [label="TRUCKS_AAD_avg <= 2.251407\nsquared_error = 0.046671\nsamples = 38\nvalue = 0.163036", fillcolor="#fefaf7"] ;
653 -> 654 ;
655 [label="squared_error = 0.206519\nsamples = 6\nvalue = 0.3925", fillcolor="#fcf2eb"] ;
654 -> 655 ;
656 [label="rainfall <= -0.939295\nsquared_error = 0.009792\nsamples = 32\nvalue = 0.124792", fillcolor="#fefbf9"] ;
654 -> 656 ;
657 [label="ALLVEHS_AA_avg <= 2.656474\nsquared_error = 0.000504\nsamples = 3\nvalue = 0.296", fillcolor="#fdf5f0"] ;
656 -> 657 ;
658 [label="squared_error = 8.9e-05\nsamples = 2\nvalue = 0.313333", fillcolor="#fdf5ef"] ;
657 -> 658 ;
659 [label="squared_error = -0.0\nsamples = 1\nvalue = 0.27", fillcolor="#fdf6f1"] ;
657 -> 659 ;
660 [label="TRUCKS_AAD_avg <= 3.16164\nsquared_error = 0.007067\nsamples = 29\nvalue = 0.104884", fillcolor="#fefcfa"] ;
656 -> 660 ;
661 [label="squared_error = 0.002062\nsamples = 22\nvalue = 0.087273", fillcolor="#fefcfb"] ;
660 -> 661 ;
662 [label="squared_error = 0.019181\nsamples = 7\nvalue = 0.163", fillcolor="#fefaf7"] ;
660 -> 662 ;
663 [label="TRUCKS_AAD_avg <= 3.013463\nsquared_error = 0.058564\nsamples = 44\nvalue = 0.230854", fillcolor="#fdf8f3"] ;
653 -> 663 ;
664 [label="TRUCKS_AAD_avg <= 2.865285\nsquared_error = 0.051536\nsamples = 40\nvalue = 0.212821", fillcolor="#fef8f4"] ;
663 -> 664 ;
665 [label="ALLVEHS_AA_avg <= 2.165835\nsquared_error = 0.055843\nsamples = 35\nvalue = 0.23209", fillcolor="#fdf8f3"] ;
664 -> 665 ;
666 [label="squared_error = 0.005864\nsamples = 6\nvalue = 0.140714", fillcolor="#fefbf8"] ;
665 -> 666 ;
667 [label="squared_error = 0.066257\nsamples = 29\nvalue = 0.256226", fillcolor="#fdf7f2"] ;
665 -> 667 ;
668 [label="ALLVEHS_AA_avg <= 2.469564\nsquared_error = 0.009261\nsamples = 5\nvalue = 0.095455", fillcolor="#fefcfa"] ;
664 -> 668 ;
669 [label="squared_error = 0.0036\nsamples = 2\nvalue = 0.09", fillcolor="#fefcfb"] ;
668 -> 669 ;
670 [label="squared_error = 0.012469\nsamples = 3\nvalue = 0.098571", fillcolor="#fefcfa"] ;
668 -> 670 ;
671 [label="squared_error = 0.065619\nsamples = 4\nvalue = 0.5825", fillcolor="#fbece1"] ;
663 -> 671 ;
672 [label="TRUCKS_AAD_avg <= 2.314911\nsquared_error = 0.012478\nsamples = 93\nvalue = 0.101204", fillcolor="#fefcfa"] ;
638 -> 672 ;
673 [label="rainfall <= -0.27567\nsquared_error = 0.023739\nsamples = 3\nvalue = 0.318333", fillcolor="#fdf5ef"] ;
672 -> 673 ;
674 [label="squared_error = 0.0004\nsamples = 2\nvalue = 0.21", fillcolor="#fef8f4"] ;
673 -> 674 ;
675 [label="squared_error = 0.0\nsamples = 1\nvalue = 0.535", fillcolor="#fbeee4"] ;
673 -> 675 ;
676 [label="TRUCKS_AAD_avg <= 3.055799\nsquared_error = 0.011146\nsamples = 90\nvalue = 0.096343", fillcolor="#fefcfa"] ;
672 -> 676 ;
677 [label="rainfall <= -0.560097\nsquared_error = 0.006562\nsamples = 48\nvalue = 0.069867", fillcolor="#fffdfc"] ;
676 -> 677 ;
678 [label="rainfall <= -0.724111\nsquared_error = 0.001481\nsamples = 12\nvalue = 0.039524", fillcolor="#fffefd"] ;
677 -> 678 ;
679 [label="TRUCKS_AAD_avg <= 2.674771\nsquared_error = 0.001406\nsamples = 10\nvalue = 0.0425", fillcolor="#fffefd"] ;
678 -> 679 ;
680 [label="squared_error = 0.001489\nsamples = 9\nvalue = 0.043333", fillcolor="#fffefd"] ;
679 -> 680 ;
681 [label="squared_error = -0.0\nsamples = 1\nvalue = 0.03", fillcolor="#fffefe"] ;
679 -> 681 ;
682 [label="squared_error = 0.0016\nsamples = 2\nvalue = 0.03", fillcolor="#fffefe"] ;
678 -> 682 ;
683 [label="ALLVEHS_AA_avg <= 2.936839\nsquared_error = 0.008041\nsamples = 36\nvalue = 0.081667", fillcolor="#fefcfb"] ;
677 -> 683 ;
684 [label="rainfall <= -0.272507\nsquared_error = 0.014106\nsamples = 9\nvalue = 0.143182", fillcolor="#fefaf8"] ;
683 -> 684 ;
685 [label="squared_error = 0.0\nsamples = 1\nvalue = 0.44", fillcolor="#fcf1e8"] ;
684 -> 685 ;
686 [label="squared_error = 0.005825\nsamples = 8\nvalue = 0.1135", fillcolor="#fefbf9"] ;
684 -> 686 ;
687 [label="TRUCKS_AAD_avg <= 2.844117\nsquared_error = 0.005274\nsamples = 27\nvalue = 0.06593", fillcolor="#fffdfc"] ;
683 -> 687 ;
688 [label="squared_error = 0.011214\nsamples = 7\nvalue = 0.087692", fillcolor="#fefcfb"] ;
687 -> 688 ;
689 [label="squared_error = 0.002405\nsamples = 20\nvalue = 0.0565", fillcolor="#fffdfc"] ;
687 -> 689 ;
690 [label="rainfall <= -0.440249\nsquared_error = 0.01495\nsamples = 42\nvalue = 0.13", fillcolor="#fefbf9"] ;
676 -> 690 ;
691 [label="TRUCKS_AAD_avg <= 3.140472\nsquared_error = 0.004687\nsamples = 18\nvalue = 0.097826", fillcolor="#fefcfa"] ;
690 -> 691 ;
692 [label="rainfall <= -0.560097\nsquared_error = 0.007632\nsamples = 7\nvalue = 0.128889", fillcolor="#fefbf9"] ;
691 -> 692 ;
693 [label="squared_error = 0.012736\nsamples = 5\nvalue = 0.118", fillcolor="#fefbf9"] ;
692 -> 693 ;
694 [label="squared_error = 0.000919\nsamples = 2\nvalue = 0.1425", fillcolor="#fefaf8"] ;
692 -> 694 ;
695 [label="TRUCKS_AAD_avg <= 3.267481\nsquared_error = 0.001774\nsamples = 11\nvalue = 0.077857", fillcolor="#fffdfb"] ;
691 -> 695 ;
696 [label="squared_error = 0.001541\nsamples = 10\nvalue = 0.069167", fillcolor="#fffdfc"] ;
695 -> 696 ;
697 [label="squared_error = 0.0\nsamples = 1\nvalue = 0.13", fillcolor="#fefbf9"] ;
695 -> 697 ;
698 [label="rainfall <= 0.04208\nsquared_error = 0.020423\nsamples = 24\nvalue = 0.150556", fillcolor="#fefaf7"] ;
690 -> 698 ;
699 [label="ALLVEHS_AA_avg <= 2.936839\nsquared_error = 0.068882\nsamples = 5\nvalue = 0.235714", fillcolor="#fdf7f3"] ;
698 -> 699 ;
700 [label="squared_error = 0.073656\nsamples = 4\nvalue = 0.266667", fillcolor="#fdf6f1"] ;
699 -> 700 ;
701 [label="squared_error = -0.0\nsamples = 1\nvalue = 0.05", fillcolor="#fffefd"] ;
699 -> 701 ;
702 [label="TRUCKS_AAD_avg <= 3.203976\nsquared_error = 0.006553\nsamples = 19\nvalue = 0.13", fillcolor="#fefbf9"] ;
698 -> 702 ;
703 [label="squared_error = 0.004229\nsamples = 11\nvalue = 0.126579", fillcolor="#fefbf9"] ;
702 -> 703 ;
704 [label="squared_error = 0.010905\nsamples = 8\nvalue = 0.1365", fillcolor="#fefbf8"] ;
702 -> 704 ;
}